{"learner":{"attributes":{"scikit_learn":"{\"_estimator_type\": \"regressor\"}"},"feature_names":["WeekNumber","hour","dayofweek","dayofyear","PowerStatusCode"],"feature_types":["int","int","int","int","int"],"gradient_booster":{"model":{"gbtree_model_param":{"num_parallel_tree":"1","num_trees":"350"},"iteration_indptr":[0,1,2,3,4,5,6,7,8,9,10,11,12,13,14,15,16,17,18,19,20,21,22,23,24,25,26,27,28,29,30,31,32,33,34,35,36,37,38,39,40,41,42,43,44,45,46,47,48,49,50,51,52,53,54,55,56,57,58,59,60,61,62,63,64,65,66,67,68,69,70,71,72,73,74,75,76,77,78,79,80,81,82,83,84,85,86,87,88,89,90,91,92,93,94,95,96,97,98,99,100,101,102,103,104,105,106,107,108,109,110,111,112,113,114,115,116,117,118,119,120,121,122,123,124,125,126,127,128,129,130,131,132,133,134,135,136,137,138,139,140,141,142,143,144,145,146,147,148,149,150,151,152,153,154,155,156,157,158,159,160,161,162,163,164,165,166,167,168,169,170,171,172,173,174,175,176,177,178,179,180,181,182,183,184,185,186,187,188,189,190,191,192,193,194,195,196,197,198,199,200,201,202,203,204,205,206,207,208,209,210,211,212,213,214,215,216,217,218,219,220,221,222,223,224,225,226,227,228,229,230,231,232,233,234,235,236,237,238,239,240,241,242,243,244,245,246,247,248,249,250,251,252,253,254,255,256,257,258,259,260,261,262,263,264,265,266,267,268,269,270,271,272,273,274,275,276,277,278,279,280,281,282,283,284,285,286,287,288,289,290,291,292,293,294,295,296,297,298,299,300,301,302,303,304,305,306,307,308,309,310,311,312,313,314,315,316,317,318,319,320,321,322,323,324,325,326,327,328,329,330,331,332,333,334,335,336,337,338,339,340,341,342,343,344,345,346,347,348,349,350],"tree_info":[0,0,0,0,0,0,0,0,0,0,0,0,0,0,0,0,0,0,0,0,0,0,0,0,0,0,0,0,0,0,0,0,0,0,0,0,0,0,0,0,0,0,0,0,0,0,0,0,0,0,0,0,0,0,0,0,0,0,0,0,0,0,0,0,0,0,0,0,0,0,0,0,0,0,0,0,0,0,0,0,0,0,0,0,0,0,0,0,0,0,0,0,0,0,0,0,0,0,0,0,0,0,0,0,0,0,0,0,0,0,0,0,0,0,0,0,0,0,0,0,0,0,0,0,0,0,0,0,0,0,0,0,0,0,0,0,0,0,0,0,0,0,0,0,0,0,0,0,0,0,0,0,0,0,0,0,0,0,0,0,0,0,0,0,0,0,0,0,0,0,0,0,0,0,0,0,0,0,0,0,0,0,0,0,0,0,0,0,0,0,0,0,0,0,0,0,0,0,0,0,0,0,0,0,0,0,0,0,0,0,0,0,0,0,0,0,0,0,0,0,0,0,0,0,0,0,0,0,0,0,0,0,0,0,0,0,0,0,0,0,0,0,0,0,0,0,0,0,0,0,0,0,0,0,0,0,0,0,0,0,0,0,0,0,0,0,0,0,0,0,0,0,0,0,0,0,0,0,0,0,0,0,0,0,0,0,0,0,0,0,0,0,0,0,0,0,0,0,0,0,0,0,0,0,0,0,0,0,0,0,0,0,0,0,0,0,0,0,0,0,0,0,0,0,0,0,0,0,0,0,0,0,0,0,0,0,0,0,0,0,0,0,0,0,0,0,0,0,0,0],"trees":[{"base_weights":[8.121713E-1,7.003619E-1,2.9553048E-2,7.2976166E-1,6.8152687E-3,7.5431326E-3,7.197112E-3],"categories":[],"categories_nodes":[],"categories_segments":[],"categories_sizes":[],"default_left":[0,0,0,0,0,0,0],"id":0,"left_children":[1,3,-1,5,-1,-1,-1],"loss_changes":[1.8068394E3,3.4763184E0,0E0,1.451416E-1,0E0,0E0,0E0],"parents":[2147483647,0,0,1,1,3,3],"right_children":[2,4,-1,6,-1,-1,-1],"split_conditions":[1E0,5E0,2.9553048E-2,8E0,6.8152687E-3,7.5431326E-3,7.197112E-3],"split_indices":[4,2,0,1,0,0,0],"split_type":[0,0,0,0,0,0,0],"sum_hessian":[7.548E3,7.175E3,3.73E2,2.787E3,4.388E3,7.88E2,1.999E3],"tree_param":{"num_deleted":"0","num_feature":"5","num_nodes":"7","size_leaf_vector":"1"}},{"base_weights":[8.0405635E-1,6.933613E-1,2.9258307E-2,7.2246933E-1,6.7471317E-3,7.4677966E-3,7.1251765E-3],"categories":[],"categories_nodes":[],"categories_segments":[],"categories_sizes":[],"default_left":[0,0,0,0,0,0,0],"id":1,"left_children":[1,3,-1,5,-1,-1,-1],"loss_changes":[1.7710039E3,3.407959E0,0E0,1.4245605E-1,0E0,0E0,0E0],"parents":[2147483647,0,0,1,1,3,3],"right_children":[2,4,-1,6,-1,-1,-1],"split_conditions":[1E0,5E0,2.9258307E-2,8E0,6.7471317E-3,7.4677966E-3,7.1251765E-3],"split_indices":[4,2,0,1,0,0,0],"split_type":[0,0,0,0,0,0,0],"sum_hessian":[7.548E3,7.175E3,3.73E2,2.787E3,4.388E3,7.88E2,1.999E3],"tree_param":{"num_deleted":"0","num_feature":"5","num_nodes":"7","size_leaf_vector":"1"}},{"base_weights":[7.960225E-1,6.8643063E-1,2.8966505E-2,7.1524984E-1,6.679676E-3,7.3932135E-3,7.0539596E-3],"categories":[],"categories_nodes":[],"categories_segments":[],"categories_sizes":[],"default_left":[0,0,0,0,0,0,0],"id":2,"left_children":[1,3,-1,5,-1,-1,-1],"loss_changes":[1.7358794E3,3.340332E0,0E0,1.3977051E-1,0E0,0E0,0E0],"parents":[2147483647,0,0,1,1,3,3],"right_children":[2,4,-1,6,-1,-1,-1],"split_conditions":[1E0,5E0,2.8966505E-2,8E0,6.679676E-3,7.3932135E-3,7.0539596E-3],"split_indices":[4,2,0,1,0,0,0],"split_type":[0,0,0,0,0,0,0],"sum_hessian":[7.548E3,7.175E3,3.73E2,2.787E3,4.388E3,7.88E2,1.999E3],"tree_param":{"num_deleted":"0","num_feature":"5","num_nodes":"7","size_leaf_vector":"1"}},{"base_weights":[7.880689E-1,6.795693E-1,2.8677616E-2,7.081025E-1,6.6128946E-3,7.3193745E-3,6.9834557E-3],"categories":[],"categories_nodes":[],"categories_segments":[],"categories_sizes":[],"default_left":[0,0,0,0,0,0,0],"id":3,"left_children":[1,3,-1,5,-1,-1,-1],"loss_changes":[1.7014517E3,3.2746582E0,0E0,1.3720703E-1,0E0,0E0,0E0],"parents":[2147483647,0,0,1,1,3,3],"right_children":[2,4,-1,6,-1,-1,-1],"split_conditions":[1E0,5E0,2.8677616E-2,8E0,6.6128946E-3,7.3193745E-3,6.9834557E-3],"split_indices":[4,2,0,1,0,0,0],"split_type":[0,0,0,0,0,0,0],"sum_hessian":[7.548E3,7.175E3,3.73E2,2.787E3,4.388E3,7.88E2,1.999E3],"tree_param":{"num_deleted":"0","num_feature":"5","num_nodes":"7","size_leaf_vector":"1"}},{"base_weights":[7.8019476E-1,6.727765E-1,2.8391605E-2,7.010266E-1,6.546781E-3,7.2462736E-3,6.913656E-3],"categories":[],"categories_nodes":[],"categories_segments":[],"categories_sizes":[],"default_left":[0,0,0,0,0,0,0],"id":4,"left_children":[1,3,-1,5,-1,-1,-1],"loss_changes":[1.667706E3,3.209961E0,0E0,1.3476562E-1,0E0,0E0,0E0],"parents":[2147483647,0,0,1,1,3,3],"right_children":[2,4,-1,6,-1,-1,-1],"split_conditions":[1E0,5E0,2.8391605E-2,8E0,6.546781E-3,7.2462736E-3,6.913656E-3],"split_indices":[4,2,0,1,0,0,0],"split_type":[0,0,0,0,0,0,0],"sum_hessian":[7.548E3,7.175E3,3.73E2,2.787E3,4.388E3,7.88E2,1.999E3],"tree_param":{"num_deleted":"0","num_feature":"5","num_nodes":"7","size_leaf_vector":"1"}},{"base_weights":[7.723993E-1,6.660516E-1,2.8108448E-2,6.9402146E-1,6.481328E-3,7.173903E-3,6.8445536E-3],"categories":[],"categories_nodes":[],"categories_segments":[],"categories_sizes":[],"default_left":[0,0,0,0,0,0,0],"id":5,"left_children":[1,3,-1,5,-1,-1,-1],"loss_changes":[1.6346304E3,3.1467285E0,0E0,1.3220215E-1,0E0,0E0,0E0],"parents":[2147483647,0,0,1,1,3,3],"right_children":[2,4,-1,6,-1,-1,-1],"split_conditions":[1E0,5E0,2.8108448E-2,8E0,6.481328E-3,7.173903E-3,6.8445536E-3],"split_indices":[4,2,0,1,0,0,0],"split_type":[0,0,0,0,0,0,0],"sum_hessian":[7.548E3,7.175E3,3.73E2,2.787E3,4.388E3,7.88E2,1.999E3],"tree_param":{"num_deleted":"0","num_feature":"5","num_nodes":"7","size_leaf_vector":"1"}},{"base_weights":[7.6468176E-1,6.5939397E-1,2.7828116E-2,6.870862E-1,6.4165285E-3,7.1022543E-3,6.7761424E-3],"categories":[],"categories_nodes":[],"categories_segments":[],"categories_sizes":[],"default_left":[0,0,0,0,0,0,0],"id":6,"left_children":[1,3,-1,5,-1,-1,-1],"loss_changes":[1.6022109E3,3.0844727E0,0E0,1.2976074E-1,0E0,0E0,0E0],"parents":[2147483647,0,0,1,1,3,3],"right_children":[2,4,-1,6,-1,-1,-1],"split_conditions":[1E0,5E0,2.7828116E-2,8E0,6.4165285E-3,7.1022543E-3,6.7761424E-3],"split_indices":[4,2,0,1,0,0,0],"split_type":[0,0,0,0,0,0,0],"sum_hessian":[7.548E3,7.175E3,3.73E2,2.787E3,4.388E3,7.88E2,1.999E3],"tree_param":{"num_deleted":"0","num_feature":"5","num_nodes":"7","size_leaf_vector":"1"}},{"base_weights":[7.5704134E-1,6.528029E-1,2.755058E-2,6.8022037E-1,6.3523785E-3,7.031322E-3,6.7084143E-3],"categories":[],"categories_nodes":[],"categories_segments":[],"categories_sizes":[],"default_left":[0,0,0,0,0,0,0],"id":7,"left_children":[1,3,-1,5,-1,-1,-1],"loss_changes":[1.5704331E3,3.0239258E0,0E0,1.274414E-1,0E0,0E0,0E0],"parents":[2147483647,0,0,1,1,3,3],"right_children":[2,4,-1,6,-1,-1,-1],"split_conditions":[1E0,5E0,2.755058E-2,8E0,6.3523785E-3,7.031322E-3,6.7084143E-3],"split_indices":[4,2,0,1,0,0,0],"split_type":[0,0,0,0,0,0,0],"sum_hessian":[7.548E3,7.175E3,3.73E2,2.787E3,4.388E3,7.88E2,1.999E3],"tree_param":{"num_deleted":"0","num_feature":"5","num_nodes":"7","size_leaf_vector":"1"}},{"base_weights":[7.494772E-1,6.462776E-1,2.727581E-2,6.7342305E-1,6.2888693E-3,6.961098E-3,6.6413637E-3],"categories":[],"categories_nodes":[],"categories_segments":[],"categories_sizes":[],"default_left":[0,0,0,0,0,0,0],"id":8,"left_children":[1,3,-1,5,-1,-1,-1],"loss_changes":[1.5392866E3,2.9641113E0,0E0,1.25E-1,0E0,0E0,0E0],"parents":[2147483647,0,0,1,1,3,3],"right_children":[2,4,-1,6,-1,-1,-1],"split_conditions":[1E0,5E0,2.727581E-2,8E0,6.2888693E-3,6.961098E-3,6.6413637E-3],"split_indices":[4,2,0,1,0,0,0],"split_type":[0,0,0,0,0,0,0],"sum_hessian":[7.548E3,7.175E3,3.73E2,2.787E3,4.388E3,7.88E2,1.999E3],"tree_param":{"num_deleted":"0","num_feature":"5","num_nodes":"7","size_leaf_vector":"1"}},{"base_weights":[7.4198866E-1,6.398176E-1,2.7003782E-2,6.666937E-1,6.225995E-3,6.891575E-3,6.574983E-3],"categories":[],"categories_nodes":[],"categories_segments":[],"categories_sizes":[],"default_left":[0,0,0,0,0,0,0],"id":9,"left_children":[1,3,-1,5,-1,-1,-1],"loss_changes":[1.5087578E3,2.9055176E0,0E0,1.22802734E-1,0E0,0E0,0E0],"parents":[2147483647,0,0,1,1,3,3],"right_children":[2,4,-1,6,-1,-1,-1],"split_conditions":[1E0,5E0,2.7003782E-2,8E0,6.225995E-3,6.891575E-3,6.574983E-3],"split_indices":[4,2,0,1,0,0,0],"split_type":[0,0,0,0,0,0,0],"sum_hessian":[7.548E3,7.175E3,3.73E2,2.787E3,4.388E3,7.88E2,1.999E3],"tree_param":{"num_deleted":"0","num_feature":"5","num_nodes":"7","size_leaf_vector":"1"}},{"base_weights":[7.34575E-1,6.334222E-1,2.6734466E-2,6.6003156E-1,6.163749E-3,6.8227476E-3,6.5092663E-3],"categories":[],"categories_nodes":[],"categories_segments":[],"categories_sizes":[],"default_left":[0,0,0,0,0,0,0],"id":10,"left_children":[1,3,-1,5,-1,-1,-1],"loss_changes":[1.478834E3,2.8483887E0,0E0,1.204834E-1,0E0,0E0,0E0],"parents":[2147483647,0,0,1,1,3,3],"right_children":[2,4,-1,6,-1,-1,-1],"split_conditions":[1E0,5E0,2.6734466E-2,8E0,6.163749E-3,6.8227476E-3,6.5092663E-3],"split_indices":[4,2,0,1,0,0,0],"split_type":[0,0,0,0,0,0,0],"sum_hessian":[7.548E3,7.175E3,3.73E2,2.787E3,4.388E3,7.88E2,1.999E3],"tree_param":{"num_deleted":"0","num_feature":"5","num_nodes":"7","size_leaf_vector":"1"}},{"base_weights":[7.272353E-1,6.2709063E-1,2.6467836E-2,6.5343606E-1,6.1021256E-3,6.754606E-3,6.444206E-3],"categories":[],"categories_nodes":[],"categories_segments":[],"categories_sizes":[],"default_left":[0,0,0,0,0,0,0],"id":11,"left_children":[1,3,-1,5,-1,-1,-1],"loss_changes":[1.4495042E3,2.7922363E0,0E0,1.184082E-1,0E0,0E0,0E0],"parents":[2147483647,0,0,1,1,3,3],"right_children":[2,4,-1,6,-1,-1,-1],"split_conditions":[1E0,5E0,2.6467836E-2,8E0,6.1021256E-3,6.754606E-3,6.444206E-3],"split_indices":[4,2,0,1,0,0,0],"split_type":[0,0,0,0,0,0,0],"sum_hessian":[7.548E3,7.175E3,3.73E2,2.787E3,4.388E3,7.88E2,1.999E3],"tree_param":{"num_deleted":"0","num_feature":"5","num_nodes":"7","size_leaf_vector":"1"}},{"base_weights":[7.1996903E-1,6.208224E-1,2.6203865E-2,6.4690644E-1,6.041118E-3,6.6871457E-3,6.379796E-3],"categories":[],"categories_nodes":[],"categories_segments":[],"categories_sizes":[],"default_left":[0,0,0,0,0,0,0],"id":12,"left_children":[1,3,-1,5,-1,-1,-1],"loss_changes":[1.4207554E3,2.7373047E0,0E0,1.1608887E-1,0E0,0E0,0E0],"parents":[2147483647,0,0,1,1,3,3],"right_children":[2,4,-1,6,-1,-1,-1],"split_conditions":[1E0,5E0,2.6203865E-2,8E0,6.041118E-3,6.6871457E-3,6.379796E-3],"split_indices":[4,2,0,1,0,0,0],"split_type":[0,0,0,0,0,0,0],"sum_hessian":[7.548E3,7.175E3,3.73E2,2.787E3,4.388E3,7.88E2,1.999E3],"tree_param":{"num_deleted":"0","num_feature":"5","num_nodes":"7","size_leaf_vector":"1"}},{"base_weights":[7.1277535E-1,6.146169E-1,2.5942527E-2,6.404421E-1,5.9807203E-3,6.6203587E-3,6.3160304E-3],"categories":[],"categories_nodes":[],"categories_segments":[],"categories_sizes":[],"default_left":[0,0,0,0,0,0,0],"id":13,"left_children":[1,3,-1,5,-1,-1,-1],"loss_changes":[1.3925771E3,2.6828613E0,0E0,1.138916E-1,0E0,0E0,0E0],"parents":[2147483647,0,0,1,1,3,3],"right_children":[2,4,-1,6,-1,-1,-1],"split_conditions":[1E0,5E0,2.5942527E-2,8E0,5.9807203E-3,6.6203587E-3,6.3160304E-3],"split_indices":[4,2,0,1,0,0,0],"split_type":[0,0,0,0,0,0,0],"sum_hessian":[7.548E3,7.175E3,3.73E2,2.787E3,4.388E3,7.88E2,1.999E3],"tree_param":{"num_deleted":"0","num_feature":"5","num_nodes":"7","size_leaf_vector":"1"}},{"base_weights":[7.0565355E-1,6.0847336E-1,2.5683796E-2,6.3404226E-1,5.9209266E-3,6.5542394E-3,6.252902E-3],"categories":[],"categories_nodes":[],"categories_segments":[],"categories_sizes":[],"default_left":[0,0,0,0,0,0,0],"id":14,"left_children":[1,3,-1,5,-1,-1,-1],"loss_changes":[1.364958E3,2.630127E0,0E0,1.1193848E-1,0E0,0E0,0E0],"parents":[2147483647,0,0,1,1,3,3],"right_children":[2,4,-1,6,-1,-1,-1],"split_conditions":[1E0,5E0,2.5683796E-2,8E0,5.9209266E-3,6.5542394E-3,6.252902E-3],"split_indices":[4,2,0,1,0,0,0],"split_type":[0,0,0,0,0,0,0],"sum_hessian":[7.548E3,7.175E3,3.73E2,2.787E3,4.388E3,7.88E2,1.999E3],"tree_param":{"num_deleted":"0","num_feature":"5","num_nodes":"7","size_leaf_vector":"1"}},{"base_weights":[6.986029E-1,6.023912E-1,2.5427647E-2,6.2770647E-1,5.8617303E-3,6.48878E-3,6.1904043E-3],"categories":[],"categories_nodes":[],"categories_segments":[],"categories_sizes":[],"default_left":[0,0,0,0,0,0,0],"id":15,"left_children":[1,3,-1,5,-1,-1,-1],"loss_changes":[1.3378867E3,2.578125E0,0E0,1.0974121E-1,0E0,0E0,0E0],"parents":[2147483647,0,0,1,1,3,3],"right_children":[2,4,-1,6,-1,-1,-1],"split_conditions":[1E0,5E0,2.5427647E-2,8E0,5.8617303E-3,6.48878E-3,6.1904043E-3],"split_indices":[4,2,0,1,0,0,0],"split_type":[0,0,0,0,0,0,0],"sum_hessian":[7.548E3,7.175E3,3.73E2,2.787E3,4.388E3,7.88E2,1.999E3],"tree_param":{"num_deleted":"0","num_feature":"5","num_nodes":"7","size_leaf_vector":"1"}},{"base_weights":[6.916227E-1,5.9636986E-1,2.5174048E-2,6.214339E-1,5.8031264E-3,6.4239744E-3,6.128531E-3],"categories":[],"categories_nodes":[],"categories_segments":[],"categories_sizes":[],"default_left":[0,0,0,0,0,0,0],"id":16,"left_children":[1,3,-1,5,-1,-1,-1],"loss_changes":[1.3113516E3,2.527588E0,0E0,1.07910156E-1,0E0,0E0,0E0],"parents":[2147483647,0,0,1,1,3,3],"right_children":[2,4,-1,6,-1,-1,-1],"split_conditions":[1E0,5E0,2.5174048E-2,8E0,5.8031264E-3,6.4239744E-3,6.128531E-3],"split_indices":[4,2,0,1,0,0,0],"split_type":[0,0,0,0,0,0,0],"sum_hessian":[7.548E3,7.175E3,3.73E2,2.787E3,4.388E3,7.88E2,1.999E3],"tree_param":{"num_deleted":"0","num_feature":"5","num_nodes":"7","size_leaf_vector":"1"}},{"base_weights":[6.8471223E-1,5.9040874E-1,2.492298E-2,6.152241E-1,5.7451087E-3,6.359816E-3,6.0672765E-3],"categories":[],"categories_nodes":[],"categories_segments":[],"categories_sizes":[],"default_left":[0,0,0,0,0,0,0],"id":17,"left_children":[1,3,-1,5,-1,-1,-1],"loss_changes":[1.2853435E3,2.477539E0,0E0,1.0571289E-1,0E0,0E0,0E0],"parents":[2147483647,0,0,1,1,3,3],"right_children":[2,4,-1,6,-1,-1,-1],"split_conditions":[1E0,5E0,2.492298E-2,8E0,5.7451087E-3,6.359816E-3,6.0672765E-3],"split_indices":[4,2,0,1,0,0,0],"split_type":[0,0,0,0,0,0,0],"sum_hessian":[7.548E3,7.175E3,3.73E2,2.787E3,4.388E3,7.88E2,1.999E3],"tree_param":{"num_deleted":"0","num_feature":"5","num_nodes":"7","size_leaf_vector":"1"}},{"base_weights":[6.778708E-1,5.8450717E-1,2.4674417E-2,6.090763E-1,5.687671E-3,6.2962985E-3,6.0066334E-3],"categories":[],"categories_nodes":[],"categories_segments":[],"categories_sizes":[],"default_left":[0,0,0,0,0,0,0],"id":18,"left_children":[1,3,-1,5,-1,-1,-1],"loss_changes":[1.2598508E3,2.4284668E0,0E0,1.03881836E-1,0E0,0E0,0E0],"parents":[2147483647,0,0,1,1,3,3],"right_children":[2,4,-1,6,-1,-1,-1],"split_conditions":[1E0,5E0,2.4674417E-2,8E0,5.687671E-3,6.2962985E-3,6.0066334E-3],"split_indices":[4,2,0,1,0,0,0],"split_type":[0,0,0,0,0,0,0],"sum_hessian":[7.548E3,7.175E3,3.73E2,2.787E3,4.388E3,7.88E2,1.999E3],"tree_param":{"num_deleted":"0","num_feature":"5","num_nodes":"7","size_leaf_vector":"1"}},{"base_weights":[6.7109776E-1,5.786646E-1,2.4428334E-2,6.0299E-1,5.630807E-3,6.2334156E-3,5.9465976E-3],"categories":[],"categories_nodes":[],"categories_segments":[],"categories_sizes":[],"default_left":[0,0,0,0,0,0,0],"id":19,"left_children":[1,3,-1,5,-1,-1,-1],"loss_changes":[1.2348645E3,2.3808594E0,0E0,1.0192871E-1,0E0,0E0,0E0],"parents":[2147483647,0,0,1,1,3,3],"right_children":[2,4,-1,6,-1,-1,-1],"split_conditions":[1E0,5E0,2.4428334E-2,8E0,5.630807E-3,6.2334156E-3,5.9465976E-3],"split_indices":[4,2,0,1,0,0,0],"split_type":[0,0,0,0,0,0,0],"sum_hessian":[7.548E3,7.175E3,3.73E2,2.787E3,4.388E3,7.88E2,1.999E3],"tree_param":{"num_deleted":"0","num_feature":"5","num_nodes":"7","size_leaf_vector":"1"}},{"base_weights":[6.6439235E-1,5.7288045E-1,2.4184704E-2,5.969644E-1,5.574512E-3,6.171161E-3,5.8871615E-3],"categories":[],"categories_nodes":[],"categories_segments":[],"categories_sizes":[],"default_left":[0,0,0,0,0,0,0],"id":20,"left_children":[1,3,-1,5,-1,-1,-1],"loss_changes":[1.2103726E3,2.3339844E0,0E0,1.00097656E-1,0E0,0E0,0E0],"parents":[2147483647,0,0,1,1,3,3],"right_children":[2,4,-1,6,-1,-1,-1],"split_conditions":[1E0,5E0,2.4184704E-2,8E0,5.574512E-3,6.171161E-3,5.8871615E-3],"split_indices":[4,2,0,1,0,0,0],"split_type":[0,0,0,0,0,0,0],"sum_hessian":[7.548E3,7.175E3,3.73E2,2.787E3,4.388E3,7.88E2,1.999E3],"tree_param":{"num_deleted":"0","num_feature":"5","num_nodes":"7","size_leaf_vector":"1"}},{"base_weights":[6.57754E-1,5.671541E-1,2.3943502E-2,5.909991E-1,5.5187796E-3,6.1095273E-3,5.828319E-3],"categories":[],"categories_nodes":[],"categories_segments":[],"categories_sizes":[],"default_left":[0,0,0,0,0,0,0],"id":21,"left_children":[1,3,-1,5,-1,-1,-1],"loss_changes":[1.1863667E3,2.2878418E0,0E0,9.820557E-2,0E0,0E0,0E0],"parents":[2147483647,0,0,1,1,3,3],"right_children":[2,4,-1,6,-1,-1,-1],"split_conditions":[1E0,5E0,2.3943502E-2,8E0,5.5187796E-3,6.1095273E-3,5.828319E-3],"split_indices":[4,2,0,1,0,0,0],"split_type":[0,0,0,0,0,0,0],"sum_hessian":[7.548E3,7.175E3,3.73E2,2.787E3,4.388E3,7.88E2,1.999E3],"tree_param":{"num_deleted":"0","num_feature":"5","num_nodes":"7","size_leaf_vector":"1"}},{"base_weights":[6.5118194E-1,5.61485E-1,2.3704708E-2,5.8509344E-1,5.4636043E-3,6.0485094E-3,5.770065E-3],"categories":[],"categories_nodes":[],"categories_segments":[],"categories_sizes":[],"default_left":[0,0,0,0,0,0,0],"id":22,"left_children":[1,3,-1,5,-1,-1,-1],"loss_changes":[1.1628374E3,2.2424316E0,0E0,9.649658E-2,0E0,0E0,0E0],"parents":[2147483647,0,0,1,1,3,3],"right_children":[2,4,-1,6,-1,-1,-1],"split_conditions":[1E0,5E0,2.3704708E-2,8E0,5.4636043E-3,6.0485094E-3,5.770065E-3],"split_indices":[4,2,0,1,0,0,0],"split_type":[0,0,0,0,0,0,0],"sum_hessian":[7.548E3,7.175E3,3.73E2,2.787E3,4.388E3,7.88E2,1.999E3],"tree_param":{"num_deleted":"0","num_feature":"5","num_nodes":"7","size_leaf_vector":"1"}},{"base_weights":[6.4467555E-1,5.5587256E-1,2.3468293E-2,5.792467E-1,5.408981E-3,5.988101E-3,5.7123927E-3],"categories":[],"categories_nodes":[],"categories_segments":[],"categories_sizes":[],"default_left":[0,0,0,0,0,0,0],"id":23,"left_children":[1,3,-1,5,-1,-1,-1],"loss_changes":[1.1397747E3,2.1984863E0,0E0,9.466553E-2,0E0,0E0,0E0],"parents":[2147483647,0,0,1,1,3,3],"right_children":[2,4,-1,6,-1,-1,-1],"split_conditions":[1E0,5E0,2.3468293E-2,8E0,5.408981E-3,5.988101E-3,5.7123927E-3],"split_indices":[4,2,0,1,0,0,0],"split_type":[0,0,0,0,0,0,0],"sum_hessian":[7.548E3,7.175E3,3.73E2,2.787E3,4.388E3,7.88E2,1.999E3],"tree_param":{"num_deleted":"0","num_feature":"5","num_nodes":"7","size_leaf_vector":"1"}},{"base_weights":[6.3823414E-1,5.503162E-1,2.3234239E-2,5.7345843E-1,5.3549027E-3,5.9282957E-3,5.6552975E-3],"categories":[],"categories_nodes":[],"categories_segments":[],"categories_sizes":[],"default_left":[0,0,0,0,0,0,0],"id":24,"left_children":[1,3,-1,5,-1,-1,-1],"loss_changes":[1.1171694E3,2.1550293E0,0E0,9.289551E-2,0E0,0E0,0E0],"parents":[2147483647,0,0,1,1,3,3],"right_children":[2,4,-1,6,-1,-1,-1],"split_conditions":[1E0,5E0,2.3234239E-2,8E0,5.3549027E-3,5.9282957E-3,5.6552975E-3],"split_indices":[4,2,0,1,0,0,0],"split_type":[0,0,0,0,0,0,0],"sum_hessian":[7.548E3,7.175E3,3.73E2,2.787E3,4.388E3,7.88E2,1.999E3],"tree_param":{"num_deleted":"0","num_feature":"5","num_nodes":"7","size_leaf_vector":"1"}},{"base_weights":[6.3185716E-1,5.448154E-1,2.3002516E-2,5.6772804E-1,5.3013666E-3,5.779786E-3,5.5333227E-3],"categories":[],"categories_nodes":[],"categories_segments":[],"categories_sizes":[],"default_left":[0,0,0,0,0,0,0],"id":25,"left_children":[1,3,-1,5,-1,-1,-1],"loss_changes":[1.0950122E3,2.1125488E0,0E0,9.1552734E-2,0E0,0E0,0E0],"parents":[2147483647,0,0,1,1,3,3],"right_children":[2,4,-1,6,-1,-1,-1],"split_conditions":[1E0,5E0,2.3002516E-2,1.6E1,5.3013666E-3,5.779786E-3,5.5333227E-3],"split_indices":[4,2,0,1,0,0,0],"split_type":[0,0,0,0,0,0,0],"sum_hessian":[7.548E3,7.175E3,3.73E2,2.787E3,4.388E3,1.605E3,1.182E3],"tree_param":{"num_deleted":"0","num_feature":"5","num_nodes":"7","size_leaf_vector":"1"}},{"base_weights":[6.2554383E-1,5.393696E-1,2.2773106E-2,5.6205475E-1,5.2483645E-3,5.8113635E-3,5.5424604E-3],"categories":[],"categories_nodes":[],"categories_segments":[],"categories_sizes":[],"default_left":[0,0,0,0,0,0,0],"id":26,"left_children":[1,3,-1,5,-1,-1,-1],"loss_changes":[1.0732944E3,2.071045E0,0E0,9.3444824E-2,0E0,0E0,0E0],"parents":[2147483647,0,0,1,1,3,3],"right_children":[2,4,-1,6,-1,-1,-1],"split_conditions":[1E0,5E0,2.2773106E-2,8E0,5.2483645E-3,5.8113635E-3,5.5424604E-3],"split_indices":[4,2,0,1,0,0,0],"split_type":[0,0,0,0,0,0,0],"sum_hessian":[7.548E3,7.175E3,3.73E2,2.787E3,4.388E3,7.88E2,1.999E3],"tree_param":{"num_deleted":"0","num_feature":"5","num_nodes":"7","size_leaf_vector":"1"}},{"base_weights":[6.192936E-1,5.3397816E-1,2.2545984E-2,5.564383E-1,5.195893E-3,5.7533234E-3,5.487064E-3],"categories":[],"categories_nodes":[],"categories_segments":[],"categories_sizes":[],"default_left":[0,0,0,0,0,0,0],"id":27,"left_children":[1,3,-1,5,-1,-1,-1],"loss_changes":[1.0520076E3,2.0300293E0,0E0,9.161377E-2,0E0,0E0,0E0],"parents":[2147483647,0,0,1,1,3,3],"right_children":[2,4,-1,6,-1,-1,-1],"split_conditions":[1E0,5E0,2.2545984E-2,8E0,5.195893E-3,5.7533234E-3,5.487064E-3],"split_indices":[4,2,0,1,0,0,0],"split_type":[0,0,0,0,0,0,0],"sum_hessian":[7.548E3,7.175E3,3.73E2,2.787E3,4.388E3,7.88E2,1.999E3],"tree_param":{"num_deleted":"0","num_feature":"5","num_nodes":"7","size_leaf_vector":"1"}},{"base_weights":[6.131058E-1,5.286407E-1,2.232113E-2,5.508779E-1,5.1439456E-3,5.6091715E-3,5.3678337E-3],"categories":[],"categories_nodes":[],"categories_segments":[],"categories_sizes":[],"default_left":[0,0,0,0,0,0,0],"id":28,"left_children":[1,3,-1,5,-1,-1,-1],"loss_changes":[1.0311428E3,1.9898682E0,0E0,9.3444824E-2,0E0,0E0,0E0],"parents":[2147483647,0,0,1,1,3,3],"right_children":[2,4,-1,6,-1,-1,-1],"split_conditions":[1E0,5E0,2.232113E-2,1.6E1,5.1439456E-3,5.6091715E-3,5.3678337E-3],"split_indices":[4,2,0,1,0,0,0],"split_type":[0,0,0,0,0,0,0],"sum_hessian":[7.548E3,7.175E3,3.73E2,2.787E3,4.388E3,1.605E3,1.182E3],"tree_param":{"num_deleted":"0","num_feature":"5","num_nodes":"7","size_leaf_vector":"1"}},{"base_weights":[6.0697985E-1,5.233565E-1,2.2098515E-2,5.4537314E-1,5.0925184E-3,5.6398427E-3,5.377583E-3],"categories":[],"categories_nodes":[],"categories_segments":[],"categories_sizes":[],"default_left":[0,0,0,0,0,0,0],"id":29,"left_children":[1,3,-1,5,-1,-1,-1],"loss_changes":[1.01069214E3,1.9504395E0,0E0,9.185791E-2,0E0,0E0,0E0],"parents":[2147483647,0,0,1,1,3,3],"right_children":[2,4,-1,6,-1,-1,-1],"split_conditions":[1E0,5E0,2.2098515E-2,8E0,5.0925184E-3,5.6398427E-3,5.377583E-3],"split_indices":[4,2,0,1,0,0,0],"split_type":[0,0,0,0,0,0,0],"sum_hessian":[7.548E3,7.175E3,3.73E2,2.787E3,4.388E3,7.88E2,1.999E3],"tree_param":{"num_deleted":"0","num_feature":"5","num_nodes":"7","size_leaf_vector":"1"}},{"base_weights":[6.0091513E-1,5.1812524E-1,2.1878118E-2,5.399233E-1,5.0416044E-3,5.4980856E-3,5.2604703E-3],"categories":[],"categories_nodes":[],"categories_segments":[],"categories_sizes":[],"default_left":[0,0,0,0,0,0,0],"id":30,"left_children":[1,3,-1,5,-1,-1,-1],"loss_changes":[9.90647E2,1.9121094E0,0E0,9.313965E-2,0E0,0E0,0E0],"parents":[2147483647,0,0,1,1,3,3],"right_children":[2,4,-1,6,-1,-1,-1],"split_conditions":[1E0,5E0,2.1878118E-2,1.6E1,5.0416044E-3,5.4980856E-3,5.2604703E-3],"split_indices":[4,2,0,1,0,0,0],"split_type":[0,0,0,0,0,0,0],"sum_hessian":[7.548E3,7.175E3,3.73E2,2.787E3,4.388E3,1.605E3,1.182E3],"tree_param":{"num_deleted":"0","num_feature":"5","num_nodes":"7","size_leaf_vector":"1"}},{"base_weights":[5.94911E-1,5.129462E-1,2.1659922E-2,5.3452796E-1,4.9912003E-3,5.528604E-3,5.270285E-3],"categories":[],"categories_nodes":[],"categories_segments":[],"categories_sizes":[],"default_left":[0,0,0,0,0,0,0],"id":31,"left_children":[1,3,-1,5,-1,-1,-1],"loss_changes":[9.70999E2,1.8743896E0,0E0,9.1918945E-2,0E0,0E0,0E0],"parents":[2147483647,0,0,1,1,3,3],"right_children":[2,4,-1,6,-1,-1,-1],"split_conditions":[1E0,5E0,2.1659922E-2,8E0,4.9912003E-3,5.528604E-3,5.270285E-3],"split_indices":[4,2,0,1,0,0,0],"split_type":[0,0,0,0,0,0,0],"sum_hessian":[7.548E3,7.175E3,3.73E2,2.787E3,4.388E3,7.88E2,1.999E3],"tree_param":{"num_deleted":"0","num_feature":"5","num_nodes":"7","size_leaf_vector":"1"}},{"base_weights":[5.889668E-1,5.0781894E-1,2.1443903E-2,5.291865E-1,4.9412996E-3,5.389201E-3,5.1552514E-3],"categories":[],"categories_nodes":[],"categories_segments":[],"categories_sizes":[],"default_left":[0,0,0,0,0,0,0],"id":32,"left_children":[1,3,-1,5,-1,-1,-1],"loss_changes":[9.5174097E2,1.8374023E0,0E0,9.289551E-2,0E0,0E0,0E0],"parents":[2147483647,0,0,1,1,3,3],"right_children":[2,4,-1,6,-1,-1,-1],"split_conditions":[1E0,5E0,2.1443903E-2,1.6E1,4.9412996E-3,5.389201E-3,5.1552514E-3],"split_indices":[4,2,0,1,0,0,0],"split_type":[0,0,0,0,0,0,0],"sum_hessian":[7.548E3,7.175E3,3.73E2,2.787E3,4.388E3,1.605E3,1.182E3],"tree_param":{"num_deleted":"0","num_feature":"5","num_nodes":"7","size_leaf_vector":"1"}},{"base_weights":[5.83082E-1,5.027429E-1,2.1230036E-2,5.238984E-1,4.891898E-3,5.419564E-3,5.1651257E-3],"categories":[],"categories_nodes":[],"categories_segments":[],"categories_sizes":[],"default_left":[0,0,0,0,0,0,0],"id":33,"left_children":[1,3,-1,5,-1,-1,-1],"loss_changes":[9.3286475E2,1.8011475E0,0E0,9.1918945E-2,0E0,0E0,0E0],"parents":[2147483647,0,0,1,1,3,3],"right_children":[2,4,-1,6,-1,-1,-1],"split_conditions":[1E0,5E0,2.1230036E-2,8E0,4.891898E-3,5.419564E-3,5.1651257E-3],"split_indices":[4,2,0,1,0,0,0],"split_type":[0,0,0,0,0,0,0],"sum_hessian":[7.548E3,7.175E3,3.73E2,2.787E3,4.388E3,7.88E2,1.999E3],"tree_param":{"num_deleted":"0","num_feature":"5","num_nodes":"7","size_leaf_vector":"1"}},{"base_weights":[5.772561E-1,4.9771762E-1,2.1018304E-2,5.186632E-1,4.8429905E-3,5.282475E-3,5.0521353E-3],"categories":[],"categories_nodes":[],"categories_segments":[],"categories_sizes":[],"default_left":[0,0,0,0,0,0,0],"id":34,"left_children":[1,3,-1,5,-1,-1,-1],"loss_changes":[9.1436304E2,1.7657471E0,0E0,9.25293E-2,0E0,0E0,0E0],"parents":[2147483647,0,0,1,1,3,3],"right_children":[2,4,-1,6,-1,-1,-1],"split_conditions":[1E0,5E0,2.1018304E-2,1.6E1,4.8429905E-3,5.282475E-3,5.0521353E-3],"split_indices":[4,2,0,1,0,0,0],"split_type":[0,0,0,0,0,0,0],"sum_hessian":[7.548E3,7.175E3,3.73E2,2.787E3,4.388E3,1.605E3,1.182E3],"tree_param":{"num_deleted":"0","num_feature":"5","num_nodes":"7","size_leaf_vector":"1"}},{"base_weights":[5.714883E-1,4.9274257E-1,2.0808682E-2,5.134803E-1,4.7945715E-3,5.31268E-3,5.062063E-3],"categories":[],"categories_nodes":[],"categories_segments":[],"categories_sizes":[],"default_left":[0,0,0,0,0,0,0],"id":35,"left_children":[1,3,-1,5,-1,-1,-1],"loss_changes":[8.962283E2,1.730957E0,0E0,9.1796875E-2,0E0,0E0,0E0],"parents":[2147483647,0,0,1,1,3,3],"right_children":[2,4,-1,6,-1,-1,-1],"split_conditions":[1E0,5E0,2.0808682E-2,8E0,4.7945715E-3,5.31268E-3,5.062063E-3],"split_indices":[4,2,0,1,0,0,0],"split_type":[0,0,0,0,0,0,0],"sum_hessian":[7.548E3,7.175E3,3.73E2,2.787E3,4.388E3,7.88E2,1.999E3],"tree_param":{"num_deleted":"0","num_feature":"5","num_nodes":"7","size_leaf_vector":"1"}},{"base_weights":[5.657782E-1,4.8781726E-1,2.0601153E-2,5.0834924E-1,4.746637E-3,5.177865E-3,4.951079E-3],"categories":[],"categories_nodes":[],"categories_segments":[],"categories_sizes":[],"default_left":[0,0,0,0,0,0,0],"id":36,"left_children":[1,3,-1,5,-1,-1,-1],"loss_changes":[8.7845337E2,1.6967773E0,0E0,9.197998E-2,0E0,0E0,0E0],"parents":[2147483647,0,0,1,1,3,3],"right_children":[2,4,-1,6,-1,-1,-1],"split_conditions":[1E0,5E0,2.0601153E-2,1.6E1,4.746637E-3,5.177865E-3,4.951079E-3],"split_indices":[4,2,0,1,0,0,0],"split_type":[0,0,0,0,0,0,0],"sum_hessian":[7.548E3,7.175E3,3.73E2,2.787E3,4.388E3,1.605E3,1.182E3],"tree_param":{"num_deleted":"0","num_feature":"5","num_nodes":"7","size_leaf_vector":"1"}},{"base_weights":[5.601251E-1,4.8294115E-1,2.039569E-2,5.0326943E-1,4.6991813E-3,5.2079074E-3,4.961056E-3],"categories":[],"categories_nodes":[],"categories_segments":[],"categories_sizes":[],"default_left":[0,0,0,0,0,0,0],"id":37,"left_children":[1,3,-1,5,-1,-1,-1],"loss_changes":[8.610303E2,1.6633301E0,0E0,9.1552734E-2,0E0,0E0,0E0],"parents":[2147483647,0,0,1,1,3,3],"right_children":[2,4,-1,6,-1,-1,-1],"split_conditions":[1E0,5E0,2.039569E-2,8E0,4.6991813E-3,5.2079074E-3,4.961056E-3],"split_indices":[4,2,0,1,0,0,0],"split_type":[0,0,0,0,0,0,0],"sum_hessian":[7.548E3,7.175E3,3.73E2,2.787E3,4.388E3,7.88E2,1.999E3],"tree_param":{"num_deleted":"0","num_feature":"5","num_nodes":"7","size_leaf_vector":"1"}},{"base_weights":[5.545286E-1,4.7811383E-1,2.0192282E-2,4.9824035E-1,4.6522003E-3,5.0753276E-3,4.852041E-3],"categories":[],"categories_nodes":[],"categories_segments":[],"categories_sizes":[],"default_left":[0,0,0,0,0,0,0],"id":38,"left_children":[1,3,-1,5,-1,-1,-1],"loss_changes":[8.439536E2,1.6306152E0,0E0,9.1430664E-2,0E0,0E0,0E0],"parents":[2147483647,0,0,1,1,3,3],"right_children":[2,4,-1,6,-1,-1,-1],"split_conditions":[1E0,5E0,2.0192282E-2,1.6E1,4.6522003E-3,5.0753276E-3,4.852041E-3],"split_indices":[4,2,0,1,0,0,0],"split_type":[0,0,0,0,0,0,0],"sum_hessian":[7.548E3,7.175E3,3.73E2,2.787E3,4.388E3,1.605E3,1.182E3],"tree_param":{"num_deleted":"0","num_feature":"5","num_nodes":"7","size_leaf_vector":"1"}},{"base_weights":[5.4898787E-1,4.7333473E-1,1.9990899E-2,4.9326152E-1,4.6056886E-3,5.105205E-3,4.8620617E-3],"categories":[],"categories_nodes":[],"categories_segments":[],"categories_sizes":[],"default_left":[0,0,0,0,0,0,0],"id":39,"left_children":[1,3,-1,5,-1,-1,-1],"loss_changes":[8.2721533E2,1.5982666E0,0E0,9.124756E-2,0E0,0E0,0E0],"parents":[2147483647,0,0,1,1,3,3],"right_children":[2,4,-1,6,-1,-1,-1],"split_conditions":[1E0,5E0,1.9990899E-2,8E0,4.6056886E-3,5.105205E-3,4.8620617E-3],"split_indices":[4,2,0,1,0,0,0],"split_type":[0,0,0,0,0,0,0],"sum_hessian":[7.548E3,7.175E3,3.73E2,2.787E3,4.388E3,7.88E2,1.999E3],"tree_param":{"num_deleted":"0","num_feature":"5","num_nodes":"7","size_leaf_vector":"1"}},{"base_weights":[5.4350257E-1,4.6860337E-1,1.9791523E-2,4.8833245E-1,4.559642E-3,4.9748225E-3,4.754982E-3],"categories":[],"categories_nodes":[],"categories_segments":[],"categories_sizes":[],"default_left":[0,0,0,0,0,0,0],"id":40,"left_children":[1,3,-1,5,-1,-1,-1],"loss_changes":[8.1080884E2,1.5667725E0,0E0,9.088135E-2,0E0,0E0,0E0],"parents":[2147483647,0,0,1,1,3,3],"right_children":[2,4,-1,6,-1,-1,-1],"split_conditions":[1E0,5E0,1.9791523E-2,1.6E1,4.559642E-3,4.9748225E-3,4.754982E-3],"split_indices":[4,2,0,1,0,0,0],"split_type":[0,0,0,0,0,0,0],"sum_hessian":[7.548E3,7.175E3,3.73E2,2.787E3,4.388E3,1.605E3,1.182E3],"tree_param":{"num_deleted":"0","num_feature":"5","num_nodes":"7","size_leaf_vector":"1"}},{"base_weights":[5.3807205E-1,4.6391934E-1,1.9594137E-2,4.8345262E-1,4.5140563E-3,5.0045326E-3,4.765041E-3],"categories":[],"categories_nodes":[],"categories_segments":[],"categories_sizes":[],"default_left":[0,0,0,0,0,0,0],"id":41,"left_children":[1,3,-1,5,-1,-1,-1],"loss_changes":[7.94728E2,1.5358887E0,0E0,9.088135E-2,0E0,0E0,0E0],"parents":[2147483647,0,0,1,1,3,3],"right_children":[2,4,-1,6,-1,-1,-1],"split_conditions":[1E0,5E0,1.9594137E-2,8E0,4.5140563E-3,5.0045326E-3,4.765041E-3],"split_indices":[4,2,0,1,0,0,0],"split_type":[0,0,0,0,0,0,0],"sum_hessian":[7.548E3,7.175E3,3.73E2,2.787E3,4.388E3,7.88E2,1.999E3],"tree_param":{"num_deleted":"0","num_feature":"5","num_nodes":"7","size_leaf_vector":"1"}},{"base_weights":[5.3269583E-1,4.5928216E-1,1.939872E-2,4.786216E-1,4.468926E-3,4.876309E-3,4.6598627E-3],"categories":[],"categories_nodes":[],"categories_segments":[],"categories_sizes":[],"default_left":[0,0,0,0,0,0,0],"id":42,"left_children":[1,3,-1,5,-1,-1,-1],"loss_changes":[7.7896606E2,1.5056152E0,0E0,9.008789E-2,0E0,0E0,0E0],"parents":[2147483647,0,0,1,1,3,3],"right_children":[2,4,-1,6,-1,-1,-1],"split_conditions":[1E0,5E0,1.939872E-2,1.6E1,4.468926E-3,4.876309E-3,4.6598627E-3],"split_indices":[4,2,0,1,0,0,0],"split_type":[0,0,0,0,0,0,0],"sum_hessian":[7.548E3,7.175E3,3.73E2,2.787E3,4.388E3,1.605E3,1.182E3],"tree_param":{"num_deleted":"0","num_feature":"5","num_nodes":"7","size_leaf_vector":"1"}},{"base_weights":[5.273733E-1,4.546913E-1,1.9205252E-2,4.738388E-1,4.424247E-3,4.9058497E-3,4.669955E-3],"categories":[],"categories_nodes":[],"categories_segments":[],"categories_sizes":[],"default_left":[0,0,0,0,0,0,0],"id":43,"left_children":[1,3,-1,5,-1,-1,-1],"loss_changes":[7.6351636E2,1.475708E0,0E0,9.039307E-2,0E0,0E0,0E0],"parents":[2147483647,0,0,1,1,3,3],"right_children":[2,4,-1,6,-1,-1,-1],"split_conditions":[1E0,5E0,1.9205252E-2,8E0,4.424247E-3,4.9058497E-3,4.669955E-3],"split_indices":[4,2,0,1,0,0,0],"split_type":[0,0,0,0,0,0,0],"sum_hessian":[7.548E3,7.175E3,3.73E2,2.787E3,4.388E3,7.88E2,1.999E3],"tree_param":{"num_deleted":"0","num_feature":"5","num_nodes":"7","size_leaf_vector":"1"}},{"base_weights":[5.2210397E-1,4.5014632E-1,1.9013714E-2,4.6910384E-1,4.3800143E-3,4.8103356E-3,4.597592E-3],"categories":[],"categories_nodes":[],"categories_segments":[],"categories_sizes":[],"default_left":[0,0,0,0,0,0,0],"id":44,"left_children":[1,3,-1,5,-1,-1,-1],"loss_changes":[7.483733E2,1.4467773E0,0E0,8.9660645E-2,0E0,0E0,0E0],"parents":[2147483647,0,0,1,1,3,3],"right_children":[2,4,-1,6,-1,-1,-1],"split_conditions":[1E0,5E0,1.9013714E-2,1.3E1,4.3800143E-3,4.8103356E-3,4.597592E-3],"split_indices":[4,2,0,1,0,0,0],"split_type":[0,0,0,0,0,0,0],"sum_hessian":[7.548E3,7.175E3,3.73E2,2.787E3,4.388E3,1.202E3,1.585E3],"tree_param":{"num_deleted":"0","num_feature":"5","num_nodes":"7","size_leaf_vector":"1"}},{"base_weights":[5.1688725E-1,4.456468E-1,1.8824084E-2,4.6441618E-1,4.3362244E-3,4.7322093E-3,4.520706E-3],"categories":[],"categories_nodes":[],"categories_segments":[],"categories_sizes":[],"default_left":[0,0,0,0,0,0,0],"id":45,"left_children":[1,3,-1,5,-1,-1,-1],"loss_changes":[7.335309E2,1.4182129E0,0E0,8.911133E-2,0E0,0E0,0E0],"parents":[2147483647,0,0,1,1,3,3],"right_children":[2,4,-1,6,-1,-1,-1],"split_conditions":[1E0,5E0,1.8824084E-2,1.6E1,4.3362244E-3,4.7322093E-3,4.520706E-3],"split_indices":[4,2,0,1,0,0,0],"split_type":[0,0,0,0,0,0,0],"sum_hessian":[7.548E3,7.175E3,3.73E2,2.787E3,4.388E3,1.605E3,1.182E3],"tree_param":{"num_deleted":"0","num_feature":"5","num_nodes":"7","size_leaf_vector":"1"}},{"base_weights":[5.117227E-1,4.411922E-1,1.8636346E-2,4.5977533E-1,4.2928723E-3,4.761549E-3,4.5308373E-3],"categories":[],"categories_nodes":[],"categories_segments":[],"categories_sizes":[],"default_left":[0,0,0,0,0,0,0],"id":46,"left_children":[1,3,-1,5,-1,-1,-1],"loss_changes":[7.1898267E2,1.3902588E0,0E0,8.984375E-2,0E0,0E0,0E0],"parents":[2147483647,0,0,1,1,3,3],"right_children":[2,4,-1,6,-1,-1,-1],"split_conditions":[1E0,5E0,1.8636346E-2,8E0,4.2928723E-3,4.761549E-3,4.5308373E-3],"split_indices":[4,2,0,1,0,0,0],"split_type":[0,0,0,0,0,0,0],"sum_hessian":[7.548E3,7.175E3,3.73E2,2.787E3,4.388E3,7.88E2,1.999E3],"tree_param":{"num_deleted":"0","num_feature":"5","num_nodes":"7","size_leaf_vector":"1"}},{"base_weights":[5.0660974E-1,4.3678218E-1,1.845048E-2,4.551809E-1,4.249953E-3,4.6385042E-3,4.430267E-3],"categories":[],"categories_nodes":[],"categories_segments":[],"categories_sizes":[],"default_left":[0,0,0,0,0,0,0],"id":47,"left_children":[1,3,-1,5,-1,-1,-1],"loss_changes":[7.0472266E2,1.362915E0,0E0,8.8256836E-2,0E0,0E0,0E0],"parents":[2147483647,0,0,1,1,3,3],"right_children":[2,4,-1,6,-1,-1,-1],"split_conditions":[1E0,5E0,1.845048E-2,1.6E1,4.249953E-3,4.6385042E-3,4.430267E-3],"split_indices":[4,2,0,1,0,0,0],"split_type":[0,0,0,0,0,0,0],"sum_hessian":[7.548E3,7.175E3,3.73E2,2.787E3,4.388E3,1.605E3,1.182E3],"tree_param":{"num_deleted":"0","num_feature":"5","num_nodes":"7","size_leaf_vector":"1"}},{"base_weights":[5.015479E-1,4.3241623E-1,1.826647E-2,4.5063233E-1,4.207464E-3,4.6676677E-3,4.44042E-3],"categories":[],"categories_nodes":[],"categories_segments":[],"categories_sizes":[],"default_left":[0,0,0,0,0,0,0],"id":48,"left_children":[1,3,-1,5,-1,-1,-1],"loss_changes":[6.9074585E2,1.3359375E0,0E0,8.911133E-2,0E0,0E0,0E0],"parents":[2147483647,0,0,1,1,3,3],"right_children":[2,4,-1,6,-1,-1,-1],"split_conditions":[1E0,5E0,1.826647E-2,8E0,4.207464E-3,4.6676677E-3,4.44042E-3],"split_indices":[4,2,0,1,0,0,0],"split_type":[0,0,0,0,0,0,0],"sum_hessian":[7.548E3,7.175E3,3.73E2,2.787E3,4.388E3,7.88E2,1.999E3],"tree_param":{"num_deleted":"0","num_feature":"5","num_nodes":"7","size_leaf_vector":"1"}},{"base_weights":[4.9653655E-1,4.280939E-1,1.8084293E-2,4.461293E-1,4.1653984E-3,4.6210503E-3,4.396038E-3],"categories":[],"categories_nodes":[],"categories_segments":[],"categories_sizes":[],"default_left":[0,0,0,0,0,0,0],"id":49,"left_children":[1,3,-1,5,-1,-1,-1],"loss_changes":[6.7704626E2,1.3095703E0,0E0,8.746338E-2,0E0,0E0,0E0],"parents":[2147483647,0,0,1,1,3,3],"right_children":[2,4,-1,6,-1,-1,-1],"split_conditions":[1E0,5E0,1.8084293E-2,8E0,4.1653984E-3,4.6210503E-3,4.396038E-3],"split_indices":[4,2,0,1,0,0,0],"split_type":[0,0,0,0,0,0,0],"sum_hessian":[7.548E3,7.175E3,3.73E2,2.787E3,4.388E3,7.88E2,1.999E3],"tree_param":{"num_deleted":"0","num_feature":"5","num_nodes":"7","size_leaf_vector":"1"}},{"base_weights":[4.9157533E-1,4.238148E-1,1.7903935E-2,4.4167125E-1,4.123754E-3,4.50162E-3,4.2977114E-3],"categories":[],"categories_nodes":[],"categories_segments":[],"categories_sizes":[],"default_left":[0,0,0,0,0,0,0],"id":50,"left_children":[1,3,-1,5,-1,-1,-1],"loss_changes":[6.6361816E2,1.2838135E0,0E0,8.81958E-2,0E0,0E0,0E0],"parents":[2147483647,0,0,1,1,3,3],"right_children":[2,4,-1,6,-1,-1,-1],"split_conditions":[1E0,5E0,1.7903935E-2,1.6E1,4.123754E-3,4.50162E-3,4.2977114E-3],"split_indices":[4,2,0,1,0,0,0],"split_type":[0,0,0,0,0,0,0],"sum_hessian":[7.548E3,7.175E3,3.73E2,2.787E3,4.388E3,1.605E3,1.182E3],"tree_param":{"num_deleted":"0","num_feature":"5","num_nodes":"7","size_leaf_vector":"1"}},{"base_weights":[4.8666367E-1,4.1957846E-1,1.7725373E-2,4.3725768E-1,4.0825256E-3,4.529939E-3,4.308311E-3],"categories":[],"categories_nodes":[],"categories_segments":[],"categories_sizes":[],"default_left":[0,0,0,0,0,0,0],"id":51,"left_children":[1,3,-1,5,-1,-1,-1],"loss_changes":[6.5045654E2,1.2581787E0,0E0,8.679199E-2,0E0,0E0,0E0],"parents":[2147483647,0,0,1,1,3,3],"right_children":[2,4,-1,6,-1,-1,-1],"split_conditions":[1E0,5E0,1.7725373E-2,8E0,4.0825256E-3,4.529939E-3,4.308311E-3],"split_indices":[4,2,0,1,0,0,0],"split_type":[0,0,0,0,0,0,0],"sum_hessian":[7.548E3,7.175E3,3.73E2,2.787E3,4.388E3,7.88E2,1.999E3],"tree_param":{"num_deleted":"0","num_feature":"5","num_nodes":"7","size_leaf_vector":"1"}},{"base_weights":[4.818011E-1,4.153845E-1,1.7548595E-2,4.3288827E-1,4.04171E-3,4.412488E-3,4.211724E-3],"categories":[],"categories_nodes":[],"categories_segments":[],"categories_sizes":[],"default_left":[0,0,0,0,0,0,0],"id":52,"left_children":[1,3,-1,5,-1,-1,-1],"loss_changes":[6.375558E2,1.2335205E0,0E0,8.721924E-2,0E0,0E0,0E0],"parents":[2147483647,0,0,1,1,3,3],"right_children":[2,4,-1,6,-1,-1,-1],"split_conditions":[1E0,5E0,1.7548595E-2,1.6E1,4.04171E-3,4.412488E-3,4.211724E-3],"split_indices":[4,2,0,1,0,0,0],"split_type":[0,0,0,0,0,0,0],"sum_hessian":[7.548E3,7.175E3,3.73E2,2.787E3,4.388E3,1.605E3,1.182E3],"tree_param":{"num_deleted":"0","num_feature":"5","num_nodes":"7","size_leaf_vector":"1"}},{"base_weights":[4.769871E-1,4.112324E-1,1.7373577E-2,4.285625E-1,4.001302E-3,4.397042E-3,4.1984115E-3],"categories":[],"categories_nodes":[],"categories_segments":[],"categories_sizes":[],"default_left":[0,0,0,0,0,0,0],"id":53,"left_children":[1,3,-1,5,-1,-1,-1],"loss_changes":[6.2491113E2,1.2092285E0,0E0,8.630371E-2,0E0,0E0,0E0],"parents":[2147483647,0,0,1,1,3,3],"right_children":[2,4,-1,6,-1,-1,-1],"split_conditions":[1E0,5E0,1.7373577E-2,1.3E1,4.001302E-3,4.397042E-3,4.1984115E-3],"split_indices":[4,2,0,1,0,0,0],"split_type":[0,0,0,0,0,0,0],"sum_hessian":[7.548E3,7.175E3,3.73E2,2.787E3,4.388E3,1.202E3,1.585E3],"tree_param":{"num_deleted":"0","num_feature":"5","num_nodes":"7","size_leaf_vector":"1"}},{"base_weights":[4.7222117E-1,4.071218E-1,1.7200306E-2,3.961744E-3,4.2435125E-1,4.3560704E-3,4.156454E-3],"categories":[],"categories_nodes":[],"categories_segments":[],"categories_sizes":[],"default_left":[0,0,0,0,0,0,0],"id":54,"left_children":[1,3,-1,-1,5,-1,-1],"loss_changes":[6.1251697E2,1.1855469E0,0E0,0E0,9.072876E-2,0E0,0E0],"parents":[2147483647,0,0,1,1,4,4],"right_children":[2,4,-1,-1,6,-1,-1],"split_conditions":[1E0,4.7E1,1.7200306E-2,3.961744E-3,1.3E1,4.3560704E-3,4.156454E-3],"split_indices":[4,0,0,0,1,0,0],"split_type":[0,0,0,0,0,0,0],"sum_hessian":[7.548E3,7.175E3,3.73E2,4.402E3,2.773E3,1.188E3,1.585E3],"tree_param":{"num_deleted":"0","num_feature":"5","num_nodes":"7","size_leaf_vector":"1"}},{"base_weights":[4.675029E-1,4.0305233E-1,1.7028762E-2,4.200409E-1,3.9216895E-3,4.353208E-3,4.1380296E-3],"categories":[],"categories_nodes":[],"categories_segments":[],"categories_sizes":[],"default_left":[0,0,0,0,0,0,0],"id":55,"left_children":[1,3,-1,5,-1,-1,-1],"loss_changes":[6.00369E2,1.1619873E0,0E0,8.560181E-2,0E0,0E0,0E0],"parents":[2147483647,0,0,1,1,3,3],"right_children":[2,4,-1,6,-1,-1,-1],"split_conditions":[1E0,5E0,1.7028762E-2,8E0,3.9216895E-3,4.353208E-3,4.1380296E-3],"split_indices":[4,2,0,1,0,0,0],"split_type":[0,0,0,0,0,0,0],"sum_hessian":[7.548E3,7.175E3,3.73E2,2.787E3,4.388E3,7.88E2,1.999E3],"tree_param":{"num_deleted":"0","num_feature":"5","num_nodes":"7","size_leaf_vector":"1"}},{"base_weights":[4.6283174E-1,3.9902353E-1,1.685893E-2,4.1584352E-1,3.8824815E-3,4.239537E-3,4.0448187E-3],"categories":[],"categories_nodes":[],"categories_segments":[],"categories_sizes":[],"default_left":[0,0,0,0,0,0,0],"id":56,"left_children":[1,3,-1,5,-1,-1,-1],"loss_changes":[5.8846155E2,1.1391602E0,0E0,8.544922E-2,0E0,0E0,0E0],"parents":[2147483647,0,0,1,1,3,3],"right_children":[2,4,-1,6,-1,-1,-1],"split_conditions":[1E0,5E0,1.685893E-2,1.6E1,3.8824815E-3,4.239537E-3,4.0448187E-3],"split_indices":[4,2,0,1,0,0,0],"split_type":[0,0,0,0,0,0,0],"sum_hessian":[7.548E3,7.175E3,3.73E2,2.787E3,4.388E3,1.605E3,1.182E3],"tree_param":{"num_deleted":"0","num_feature":"5","num_nodes":"7","size_leaf_vector":"1"}},{"base_weights":[4.5820728E-1,3.95035E-1,1.669079E-2,3.8440933E-3,4.1175804E-1,4.2274143E-3,4.0326435E-3],"categories":[],"categories_nodes":[],"categories_segments":[],"categories_sizes":[],"default_left":[0,0,0,0,0,0,0],"id":57,"left_children":[1,3,-1,-1,5,-1,-1],"loss_changes":[5.767903E2,1.1168213E0,0E0,0E0,8.831787E-2,0E0,0E0],"parents":[2147483647,0,0,1,1,4,4],"right_children":[2,4,-1,-1,6,-1,-1],"split_conditions":[1E0,4.7E1,1.669079E-2,3.8440933E-3,1.3E1,4.2274143E-3,4.0326435E-3],"split_indices":[4,0,0,0,1,0,0],"split_type":[0,0,0,0,0,0,0],"sum_hessian":[7.548E3,7.175E3,3.73E2,4.402E3,2.773E3,1.188E3,1.585E3],"tree_param":{"num_deleted":"0","num_feature":"5","num_nodes":"7","size_leaf_vector":"1"}},{"base_weights":[4.5362902E-1,3.9108634E-1,1.6524328E-2,3.805661E-3,4.0764344E-1,4.1573397E-3,3.9641117E-3],"categories":[],"categories_nodes":[],"categories_segments":[],"categories_sizes":[],"default_left":[0,0,0,0,0,0,0],"id":58,"left_children":[1,3,-1,-1,5,-1,-1],"loss_changes":[5.653507E2,1.0947266E0,0E0,0E0,8.728027E-2,0E0,0E0],"parents":[2147483647,0,0,1,1,4,4],"right_children":[2,4,-1,-1,6,-1,-1],"split_conditions":[1E0,4.7E1,1.6524328E-2,3.805661E-3,1.6E1,4.1573397E-3,3.9641117E-3],"split_indices":[4,0,0,0,1,0,0],"split_type":[0,0,0,0,0,0,0],"sum_hessian":[7.548E3,7.175E3,3.73E2,4.402E3,2.773E3,1.591E3,1.182E3],"tree_param":{"num_deleted":"0","num_feature":"5","num_nodes":"7","size_leaf_vector":"1"}},{"base_weights":[4.490965E-1,3.8717714E-1,1.6359529E-2,4.0350258E-1,3.767186E-3,4.1836477E-3,3.9743767E-3],"categories":[],"categories_nodes":[],"categories_segments":[],"categories_sizes":[],"default_left":[0,0,0,0,0,0,0],"id":59,"left_children":[1,3,-1,5,-1,-1,-1],"loss_changes":[5.5413806E2,1.0732422E0,0E0,8.505249E-2,0E0,0E0,0E0],"parents":[2147483647,0,0,1,1,3,3],"right_children":[2,4,-1,6,-1,-1,-1],"split_conditions":[1E0,5E0,1.6359529E-2,8E0,3.767186E-3,4.1836477E-3,3.9743767E-3],"split_indices":[4,2,0,1,0,0,0],"split_type":[0,0,0,0,0,0,0],"sum_hessian":[7.548E3,7.175E3,3.73E2,2.787E3,4.388E3,7.88E2,1.999E3],"tree_param":{"num_deleted":"0","num_feature":"5","num_nodes":"7","size_leaf_vector":"1"}},{"base_weights":[4.4460928E-1,3.8330704E-1,1.619637E-2,3.7299437E-3,3.995375E-1,4.0750373E-3,3.8847937E-3],"categories":[],"categories_nodes":[],"categories_segments":[],"categories_sizes":[],"default_left":[0,0,0,0,0,0,0],"id":60,"left_children":[1,3,-1,-1,5,-1,-1],"loss_changes":[5.4314746E2,1.052002E0,0E0,0E0,8.602905E-2,0E0,0E0],"parents":[2147483647,0,0,1,1,4,4],"right_children":[2,4,-1,-1,6,-1,-1],"split_conditions":[1E0,4.7E1,1.619637E-2,3.7299437E-3,1.6E1,4.0750373E-3,3.8847937E-3],"split_indices":[4,0,0,0,1,0,0],"split_type":[0,0,0,0,0,0,0],"sum_hessian":[7.548E3,7.175E3,3.73E2,4.402E3,2.773E3,1.591E3,1.182E3],"tree_param":{"num_deleted":"0","num_feature":"5","num_nodes":"7","size_leaf_vector":"1"}},{"base_weights":[4.401669E-1,3.794756E-1,1.603484E-2,3.954793E-1,3.6922316E-3,4.1011656E-3,3.8950713E-3],"categories":[],"categories_nodes":[],"categories_segments":[],"categories_sizes":[],"default_left":[0,0,0,0,0,0,0],"id":61,"left_children":[1,3,-1,5,-1,-1,-1],"loss_changes":[5.3237524E2,1.0313721E0,0E0,8.401489E-2,0E0,0E0,0E0],"parents":[2147483647,0,0,1,1,3,3],"right_children":[2,4,-1,6,-1,-1,-1],"split_conditions":[1E0,5E0,1.603484E-2,8E0,3.6922316E-3,4.1011656E-3,3.8950713E-3],"split_indices":[4,2,0,1,0,0,0],"split_type":[0,0,0,0,0,0,0],"sum_hessian":[7.548E3,7.175E3,3.73E2,2.787E3,4.388E3,7.88E2,1.999E3],"tree_param":{"num_deleted":"0","num_feature":"5","num_nodes":"7","size_leaf_vector":"1"}},{"base_weights":[4.357689E-1,3.7568247E-1,1.587492E-2,3.6557324E-3,3.915928E-1,3.489764E-3,3.9348886E-3],"categories":[],"categories_nodes":[],"categories_segments":[],"categories_sizes":[],"default_left":[0,0,0,0,0,0,0],"id":62,"left_children":[1,3,-1,-1,5,-1,-1],"loss_changes":[5.218165E2,1.0111084E0,0E0,0E0,8.682251E-2,0E0,0E0],"parents":[2147483647,0,0,1,1,4,4],"right_children":[2,4,-1,-1,6,-1,-1],"split_conditions":[1E0,4.7E1,1.587492E-2,3.6557324E-3,1E0,3.489764E-3,3.9348886E-3],"split_indices":[4,0,0,0,1,0,0],"split_type":[0,0,0,0,0,0,0],"sum_hessian":[7.548E3,7.175E3,3.73E2,4.402E3,2.773E3,1.26E2,2.647E3],"tree_param":{"num_deleted":"0","num_feature":"5","num_nodes":"7","size_leaf_vector":"1"}},{"base_weights":[4.314148E-1,3.719272E-1,1.5716596E-2,3.8761547E-1,3.6187689E-3,4.021618E-3,3.816831E-3],"categories":[],"categories_nodes":[],"categories_segments":[],"categories_sizes":[],"default_left":[0,0,0,0,0,0,0],"id":63,"left_children":[1,3,-1,5,-1,-1,-1],"loss_changes":[5.1146716E2,9.9121094E-1,0E0,8.709717E-2,0E0,0E0,0E0],"parents":[2147483647,0,0,1,1,3,3],"right_children":[2,4,-1,6,-1,-1,-1],"split_conditions":[1E0,5E0,1.5716596E-2,8E0,3.6187689E-3,4.021618E-3,3.816831E-3],"split_indices":[4,2,0,1,0,0,0],"split_type":[0,0,0,0,0,0,0],"sum_hessian":[7.548E3,7.175E3,3.73E2,2.787E3,4.388E3,7.88E2,1.999E3],"tree_param":{"num_deleted":"0","num_feature":"5","num_nodes":"7","size_leaf_vector":"1"}},{"base_weights":[4.2710423E-1,3.682095E-1,1.555985E0,3.5829975E-3,3.8380593E-1,1.4281601E-2,1.6045036E-2,3.415241E-3,3.8568887E-3],"categories":[],"categories_nodes":[],"categories_segments":[],"categories_sizes":[],"default_left":[0,0,0,0,0,0,0,0,0],"id":64,"left_children":[1,3,5,-1,7,-1,-1,-1,-1],"loss_changes":[5.0132324E2,9.715576E-1,2.8076172E-2,0E0,8.9141846E-2,0E0,0E0,0E0,0E0],"parents":[2147483647,0,0,1,1,2,2,4,4],"right_children":[2,4,6,-1,8,-1,-1,-1,-1],"split_conditions":[1E0,4.7E1,7E0,3.5829975E-3,1E0,1.4281601E-2,1.6045036E-2,3.415241E-3,3.8568887E-3],"split_indices":[4,0,1,0,1,0,0,0,0],"split_type":[0,0,0,0,0,0,0,0,0],"sum_hessian":[7.548E3,7.175E3,3.73E2,4.402E3,2.773E3,1.11E2,2.62E2,1.26E2,2.647E3],"tree_param":{"num_deleted":"0","num_feature":"5","num_nodes":"9","size_leaf_vector":"1"}},{"base_weights":[4.2283863E-1,3.6452892E-1,1.5405062E0,3.7990794E-1,3.5467674E-3,1.4140059E-2,1.5885195E-2,3.943638E-3,3.7401512E-3],"categories":[],"categories_nodes":[],"categories_segments":[],"categories_sizes":[],"default_left":[0,0,0,0,0,0,0,0,0],"id":65,"left_children":[1,3,5,7,-1,-1,-1,-1,-1],"loss_changes":[4.9141345E2,9.5251465E-1,2.545166E-2,9.0026855E-2,0E0,0E0,0E0,0E0,0E0],"parents":[2147483647,0,0,1,1,2,2,3,3],"right_children":[2,4,6,8,-1,-1,-1,-1,-1],"split_conditions":[1E0,5E0,7E0,8E0,3.5467674E-3,1.4140059E-2,1.5885195E-2,3.943638E-3,3.7401512E-3],"split_indices":[4,2,1,1,0,0,0,0,0],"split_type":[0,0,0,0,0,0,0,0,0],"sum_hessian":[7.548E3,7.175E3,3.73E2,2.787E3,4.388E3,1.11E2,2.62E2,7.88E2,1.999E3],"tree_param":{"num_deleted":"0","num_feature":"5","num_nodes":"9","size_leaf_vector":"1"}},{"base_weights":[4.1861573E-1,3.608852E-1,1.5251814E0,3.7611163E-1,3.5113078E-3,1.3999922E-2,1.5726948E-2,3.342232E-3,3.7796875E-3],"categories":[],"categories_nodes":[],"categories_segments":[],"categories_sizes":[],"default_left":[0,0,0,0,0,0,0,0,0],"id":66,"left_children":[1,3,5,7,-1,-1,-1,-1,-1],"loss_changes":[4.8169946E2,9.337158E-1,2.2827148E-2,9.057617E-2,0E0,0E0,0E0,0E0,0E0],"parents":[2147483647,0,0,1,1,2,2,3,3],"right_children":[2,4,6,8,-1,-1,-1,-1,-1],"split_conditions":[1E0,5E0,7E0,1E0,3.5113078E-3,1.3999922E-2,1.5726948E-2,3.342232E-3,3.7796875E-3],"split_indices":[4,2,1,1,0,0,0,0,0],"split_type":[0,0,0,0,0,0,0,0,0],"sum_hessian":[7.548E3,7.175E3,3.73E2,2.787E3,4.388E3,1.11E2,2.62E2,1.26E2,2.661E3],"tree_param":{"num_deleted":"0","num_feature":"5","num_nodes":"9","size_leaf_vector":"1"}},{"base_weights":[4.144349E-1,3.5727784E-1,1.510009E0,3.4765962E-3,3.7241542E-1,1.3861173E-2,1.55702755E-2,3.8022292E-3,3.6159384E-3],"categories":[],"categories_nodes":[],"categories_segments":[],"categories_sizes":[],"default_left":[0,0,0,0,0,0,0,0,0],"id":67,"left_children":[1,3,5,-1,7,-1,-1,-1,-1],"loss_changes":[4.721775E2,9.152832E-1,2.0446777E-2,0E0,9.689331E-2,0E0,0E0,0E0,0E0],"parents":[2147483647,0,0,1,1,2,2,4,4],"right_children":[2,4,6,-1,8,-1,-1,-1,-1],"split_conditions":[1E0,4.7E1,7E0,3.4765962E-3,1.6E1,1.3861173E-2,1.55702755E-2,3.8022292E-3,3.6159384E-3],"split_indices":[4,0,1,0,1,0,0,0,0],"split_type":[0,0,0,0,0,0,0,0,0],"sum_hessian":[7.548E3,7.175E3,3.73E2,4.402E3,2.773E3,1.11E2,2.62E2,1.591E3,1.182E3],"tree_param":{"num_deleted":"0","num_feature":"5","num_nodes":"9","size_leaf_vector":"1"}},{"base_weights":[4.1029587E-1,3.5370654E-1,1.4949877E0,3.686328E-1,3.4414446E-3,1.3723799E-2,1.5415165E-2,3.8292266E-3,3.6281112E-3],"categories":[],"categories_nodes":[],"categories_segments":[],"categories_sizes":[],"default_left":[0,0,0,0,0,0,0,0,0],"id":68,"left_children":[1,3,5,7,-1,-1,-1,-1,-1],"loss_changes":[4.6284375E2,8.9733887E-1,1.8005371E-2,9.301758E-2,0E0,0E0,0E0,0E0,0E0],"parents":[2147483647,0,0,1,1,2,2,3,3],"right_children":[2,4,6,8,-1,-1,-1,-1,-1],"split_conditions":[1E0,5E0,7E0,8E0,3.4414446E-3,1.3723799E-2,1.5415165E-2,3.8292266E-3,3.6281112E-3],"split_indices":[4,2,1,1,0,0,0,0,0],"split_type":[0,0,0,0,0,0,0,0,0],"sum_hessian":[7.548E3,7.175E3,3.73E2,2.787E3,4.388E3,1.11E2,2.62E2,7.88E2,1.999E3],"tree_param":{"num_deleted":"0","num_feature":"5","num_nodes":"9","size_leaf_vector":"1"}},{"base_weights":[4.061982E-1,3.50171E-1,1.4801157E0,3.649491E-1,3.4070378E-3,1.3587786E-2,1.52616E-2,3.2333592E-3,3.6679732E-3],"categories":[],"categories_nodes":[],"categories_segments":[],"categories_sizes":[],"default_left":[0,0,0,0,0,0,0,0,0],"id":69,"left_children":[1,3,5,7,-1,-1,-1,-1,-1],"loss_changes":[4.5369446E2,8.7957764E-1,1.5808105E-2,9.579468E-2,0E0,0E0,0E0,0E0,0E0],"parents":[2147483647,0,0,1,1,2,2,3,3],"right_children":[2,4,6,8,-1,-1,-1,-1,-1],"split_conditions":[1E0,5E0,7E0,1E0,3.4070378E-3,1.3587786E-2,1.52616E-2,3.2333592E-3,3.6679732E-3],"split_indices":[4,2,1,1,0,0,0,0,0],"split_type":[0,0,0,0,0,0,0,0,0],"sum_hessian":[7.548E3,7.175E3,3.73E2,2.787E3,4.388E3,1.11E2,2.62E2,1.26E2,2.661E3],"tree_param":{"num_deleted":"0","num_feature":"5","num_nodes":"9","size_leaf_vector":"1"}},{"base_weights":[4.0214142E-1,3.4667072E-1,1.4653916E0,3.373354E-3,3.613631E-1,1.3453121E-2,1.5109562E-2,3.7173517E-3,3.5335948E-3],"categories":[],"categories_nodes":[],"categories_segments":[],"categories_sizes":[],"default_left":[0,0,0,0,0,0,0,0,0],"id":70,"left_children":[1,3,5,-1,7,-1,-1,-1,-1],"loss_changes":[4.447262E2,8.623047E-1,1.361084E-2,0E0,9.890747E-2,0E0,0E0,0E0,0E0],"parents":[2147483647,0,0,1,1,2,2,4,4],"right_children":[2,4,6,-1,8,-1,-1,-1,-1],"split_conditions":[1E0,4.7E1,7E0,3.373354E-3,1.3E1,1.3453121E-2,1.5109562E-2,3.7173517E-3,3.5335948E-3],"split_indices":[4,0,1,0,1,0,0,0,0],"split_type":[0,0,0,0,0,0,0,0,0],"sum_hessian":[7.548E3,7.175E3,3.73E2,4.402E3,2.773E3,1.11E2,2.62E2,1.188E3,1.585E3],"tree_param":{"num_deleted":"0","num_feature":"5","num_nodes":"9","size_leaf_vector":"1"}},{"base_weights":[3.981252E-1,3.432055E-1,1.4508141E0,3.3396282E-3,3.5775208E-1,1.3319791E-2,1.4959042E-2,3.164399E-3,3.5959834E-3],"categories":[],"categories_nodes":[],"categories_segments":[],"categories_sizes":[],"default_left":[0,0,0,0,0,0,0,0,0],"id":71,"left_children":[1,3,5,-1,7,-1,-1,-1,-1],"loss_changes":[4.3593518E2,8.452759E-1,1.1474609E-2,0E0,9.780884E-2,0E0,0E0,0E0,0E0],"parents":[2147483647,0,0,1,1,2,2,4,4],"right_children":[2,4,6,-1,8,-1,-1,-1,-1],"split_conditions":[1E0,4.7E1,7E0,3.3396282E-3,1E0,1.3319791E-2,1.4959042E-2,3.164399E-3,3.5959834E-3],"split_indices":[4,0,1,0,1,0,0,0,0],"split_type":[0,0,0,0,0,0,0,0,0],"sum_hessian":[7.548E3,7.175E3,3.73E2,4.402E3,2.773E3,1.11E2,2.62E2,1.26E2,2.647E3],"tree_param":{"num_deleted":"0","num_feature":"5","num_nodes":"9","size_leaf_vector":"1"}},{"base_weights":[3.94149E-1,3.3977485E-1,1.4363816E0,3.5411838E-1,3.3058603E-3,1.3187784E-2,1.4810019E-2,3.682692E-3,3.4835876E-3],"categories":[],"categories_nodes":[],"categories_segments":[],"categories_sizes":[],"default_left":[0,0,0,0,0,0,0,0,0],"id":72,"left_children":[1,3,5,7,-1,-1,-1,-1,-1],"loss_changes":[4.2731787E2,8.2873535E-1,9.521484E-3,9.893799E-2,0E0,0E0,0E0,0E0,0E0],"parents":[2147483647,0,0,1,1,2,2,3,3],"right_children":[2,4,6,8,-1,-1,-1,-1,-1],"split_conditions":[1E0,5E0,7E0,8E0,3.3058603E-3,1.3187784E-2,1.4810019E-2,3.682692E-3,3.4835876E-3],"split_indices":[4,2,1,1,0,0,0,0,0],"split_type":[0,0,0,0,0,0,0,0,0],"sum_hessian":[7.548E3,7.175E3,3.73E2,2.787E3,4.388E3,1.11E2,2.62E2,7.88E2,1.999E3],"tree_param":{"num_deleted":"0","num_feature":"5","num_nodes":"9","size_leaf_vector":"1"}},{"base_weights":[3.9021263E-1,3.3637854E-1,1.4220926E0,3.5057974E-1,3.2728096E-3,1.3057081E-2,1.4662483E-2,3.0964671E-3,3.524009E-3],"categories":[],"categories_nodes":[],"categories_segments":[],"categories_sizes":[],"default_left":[0,0,0,0,0,0,0,0,0],"id":73,"left_children":[1,3,5,7,-1,-1,-1,-1,-1],"loss_changes":[4.1887073E2,8.1243896E-1,7.507324E-3,9.8724365E-2,0E0,0E0,0E0,0E0,0E0],"parents":[2147483647,0,0,1,1,2,2,3,3],"right_children":[2,4,6,8,-1,-1,-1,-1,-1],"split_conditions":[1E0,5E0,7E0,1E0,3.2728096E-3,1.3057081E-2,1.4662483E-2,3.0964671E-3,3.524009E-3],"split_indices":[4,2,1,1,0,0,0,0,0],"split_type":[0,0,0,0,0,0,0,0,0],"sum_hessian":[7.548E3,7.175E3,3.73E2,2.787E3,4.388E3,1.11E2,2.62E2,1.26E2,2.661E3],"tree_param":{"num_deleted":"0","num_feature":"5","num_nodes":"9","size_leaf_vector":"1"}},{"base_weights":[3.8631546E-1,3.3301613E-1,1.4079458E0,3.2404538E-3,3.4713477E-1,1.29276775E-2,1.4516414E-2,3.547704E-3,3.3656582E-3],"categories":[],"categories_nodes":[],"categories_segments":[],"categories_sizes":[],"default_left":[0,0,0,0,0,0,0,0,0],"id":74,"left_children":[1,3,5,-1,7,-1,-1,-1,-1],"loss_changes":[4.1059094E2,7.963867E-1,5.6762695E-3,0E0,1.0446167E-1,0E0,0E0,0E0,0E0],"parents":[2147483647,0,0,1,1,2,2,4,4],"right_children":[2,4,6,-1,8,-1,-1,-1,-1],"split_conditions":[1E0,4.7E1,7E0,3.2404538E-3,1.6E1,1.29276775E-2,1.4516414E-2,3.547704E-3,3.3656582E-3],"split_indices":[4,0,1,0,1,0,0,0,0],"split_type":[0,0,0,0,0,0,0,0,0],"sum_hessian":[7.548E3,7.175E3,3.73E2,4.402E3,2.773E3,1.11E2,2.62E2,1.591E3,1.182E3],"tree_param":{"num_deleted":"0","num_feature":"5","num_nodes":"9","size_leaf_vector":"1"}},{"base_weights":[3.824573E-1,3.296874E-1,1.3939397E0,3.4360862E-1,3.2076912E-3,1.27995545E-2,1.4371802E-2,3.5759672E-3,3.3791852E-3],"categories":[],"categories_nodes":[],"categories_segments":[],"categories_sizes":[],"default_left":[0,0,0,0,0,0,0,0,0],"id":75,"left_children":[1,3,5,7,-1,-1,-1,-1,-1],"loss_changes":[4.024746E2,7.8063965E-1,3.7841797E-3,1.0107422E-1,0E0,0E0,0E0,0E0,0E0],"parents":[2147483647,0,0,1,1,2,2,3,3],"right_children":[2,4,6,8,-1,-1,-1,-1,-1],"split_conditions":[1E0,5E0,7E0,8E0,3.2076912E-3,1.27995545E-2,1.4371802E-2,3.5759672E-3,3.3791852E-3],"split_indices":[4,2,1,1,0,0,0,0,0],"split_type":[0,0,0,0,0,0,0,0,0],"sum_hessian":[7.548E3,7.175E3,3.73E2,2.787E3,4.388E3,1.11E2,2.62E2,7.88E2,1.999E3],"tree_param":{"num_deleted":"0","num_feature":"5","num_nodes":"9","size_leaf_vector":"1"}},{"base_weights":[3.7863767E-1,3.2639194E-1,1.380073E0,3.1759816E-3,3.4023204E-1,1.2672702E-2,1.4228631E-2,2.9950705E-3,3.4205678E-3],"categories":[],"categories_nodes":[],"categories_segments":[],"categories_sizes":[],"default_left":[0,0,0,0,0,0,0,0,0],"id":76,"left_children":[1,3,5,-1,7,-1,-1,-1,-1],"loss_changes":[3.9451868E2,7.652588E-1,2.0751953E-3,0E0,1.03637695E-1,0E0,0E0,0E0,0E0],"parents":[2147483647,0,0,1,1,2,2,4,4],"right_children":[2,4,6,-1,8,-1,-1,-1,-1],"split_conditions":[1E0,4.7E1,7E0,3.1759816E-3,1E0,1.2672702E-2,1.4228631E-2,2.9950705E-3,3.4205678E-3],"split_indices":[4,0,1,0,1,0,0,0,0],"split_type":[0,0,0,0,0,0,0,0,0],"sum_hessian":[7.548E3,7.175E3,3.73E2,4.402E3,2.773E3,1.11E2,2.62E2,1.26E2,2.647E3],"tree_param":{"num_deleted":"0","num_feature":"5","num_nodes":"9","size_leaf_vector":"1"}},{"base_weights":[3.748561E-1,3.2312933E-1,1.3663441E0,3.3677614E-1,3.1438693E-3,1.2547107E-2,1.4086886E-2,3.5067694E-3,3.3112385E-3],"categories":[],"categories_nodes":[],"categories_segments":[],"categories_sizes":[],"default_left":[0,0,0,0,0,0,0,0,0],"id":77,"left_children":[1,3,5,7,-1,-1,-1,-1,-1],"loss_changes":[3.867202E2,7.5024414E-1,4.8828125E-4,1.0293579E-1,0E0,0E0,0E0,0E0,0E0],"parents":[2147483647,0,0,1,1,2,2,3,3],"right_children":[2,4,6,8,-1,-1,-1,-1,-1],"split_conditions":[1E0,5E0,7E0,8E0,3.1438693E-3,1.2547107E-2,1.4086886E-2,3.5067694E-3,3.3112385E-3],"split_indices":[4,2,1,1,0,0,0,0,0],"split_type":[0,0,0,0,0,0,0,0,0],"sum_hessian":[7.548E3,7.175E3,3.73E2,2.787E3,4.388E3,1.11E2,2.62E2,7.88E2,1.999E3],"tree_param":{"num_deleted":"0","num_feature":"5","num_nodes":"9","size_leaf_vector":"1"}},{"base_weights":[3.7111244E-1,3.1989944E-1,1.3527518E-2,3.3341083E-1,3.112438E-3,2.9305636E-3,3.3521082E-3],"categories":[],"categories_nodes":[],"categories_segments":[],"categories_sizes":[],"default_left":[0,0,0,0,0,0,0],"id":78,"left_children":[1,3,-1,5,-1,-1,-1],"loss_changes":[3.7907556E2,7.3547363E-1,0E0,1.0424805E-1,0E0,0E0,0E0],"parents":[2147483647,0,0,1,1,3,3],"right_children":[2,4,-1,6,-1,-1,-1],"split_conditions":[1E0,5E0,1.3527518E-2,1E0,3.112438E-3,2.9305636E-3,3.3521082E-3],"split_indices":[4,2,0,1,0,0,0],"split_type":[0,0,0,0,0,0,0],"sum_hessian":[7.548E3,7.175E3,3.73E2,2.787E3,4.388E3,1.26E2,2.661E3],"tree_param":{"num_deleted":"0","num_feature":"5","num_nodes":"7","size_leaf_vector":"1"}},{"base_weights":[3.6740434E-1,3.1670177E-1,1.3392605E0,3.0816677E-3,3.301347E-1,1.2288688E-2,1.3811789E-2,3.376431E-3,3.197513E-3],"categories":[],"categories_nodes":[],"categories_segments":[],"categories_sizes":[],"default_left":[0,0,0,0,0,0,0,0,0],"id":79,"left_children":[1,3,5,-1,7,-1,-1,-1,-1],"loss_changes":[3.715573E2,7.210083E-1,3.3325195E-2,0E0,1.08306885E-1,0E0,0E0,0E0,0E0],"parents":[2147483647,0,0,1,1,2,2,4,4],"right_children":[2,4,6,-1,8,-1,-1,-1,-1],"split_conditions":[1E0,4.7E1,7E0,3.0816677E-3,1.6E1,1.2288688E-2,1.3811789E-2,3.376431E-3,3.197513E-3],"split_indices":[4,0,1,0,1,0,0,0,0],"split_type":[0,0,0,0,0,0,0,0,0],"sum_hessian":[7.548E3,7.175E3,3.73E2,4.402E3,2.773E3,1.11E2,2.62E2,1.591E3,1.182E3],"tree_param":{"num_deleted":"0","num_feature":"5","num_nodes":"9","size_leaf_vector":"1"}},{"base_weights":[3.6373502E-1,3.135361E-1,1.3259376E0,3.0508577E-3,3.2683572E-1,1.2166901E-2,1.3674197E-2,3.36845E-3,3.1912585E-3],"categories":[],"categories_nodes":[],"categories_segments":[],"categories_sizes":[],"default_left":[0,0,0,0,0,0,0,0,0],"id":80,"left_children":[1,3,5,-1,7,-1,-1,-1,-1],"loss_changes":[3.6421265E2,7.067261E-1,3.125E-2,0E0,1.0656738E-1,0E0,0E0,0E0,0E0],"parents":[2147483647,0,0,1,1,2,2,4,4],"right_children":[2,4,6,-1,8,-1,-1,-1,-1],"split_conditions":[1E0,4.7E1,7E0,3.0508577E-3,1.3E1,1.2166901E-2,1.3674197E-2,3.36845E-3,3.1912585E-3],"split_indices":[4,0,1,0,1,0,0,0,0],"split_type":[0,0,0,0,0,0,0,0,0],"sum_hessian":[7.548E3,7.175E3,3.73E2,4.402E3,2.773E3,1.11E2,2.62E2,1.188E3,1.585E3],"tree_param":{"num_deleted":"0","num_feature":"5","num_nodes":"9","size_leaf_vector":"1"}},{"base_weights":[3.601024E-1,3.1040207E-1,1.3127472E0,3.2351622E-1,3.0200093E-3,1.2046317E-2,1.3537974E-2,2.8345713E-3,3.2530585E-3],"categories":[],"categories_nodes":[],"categories_segments":[],"categories_sizes":[],"default_left":[0,0,0,0,0,0,0,0,0],"id":81,"left_children":[1,3,5,7,-1,-1,-1,-1,-1],"loss_changes":[3.5701306E2,6.929321E-1,2.9052734E-2,1.07666016E-1,0E0,0E0,0E0,0E0,0E0],"parents":[2147483647,0,0,1,1,2,2,3,3],"right_children":[2,4,6,8,-1,-1,-1,-1,-1],"split_conditions":[1E0,5E0,7E0,1E0,3.0200093E-3,1.2046317E-2,1.3537974E-2,2.8345713E-3,3.2530585E-3],"split_indices":[4,2,1,1,0,0,0,0,0],"split_type":[0,0,0,0,0,0,0,0,0],"sum_hessian":[7.548E3,7.175E3,3.73E2,2.787E3,4.388E3,1.11E2,2.62E2,1.26E2,2.661E3],"tree_param":{"num_deleted":"0","num_feature":"5","num_nodes":"9","size_leaf_vector":"1"}},{"base_weights":[3.5650596E-1,3.0729935E-1,1.2996882E0,2.9901555E-3,3.203369E-1,1.1926929E-2,1.340311E-2,3.2772946E-3,3.101177E-3],"categories":[],"categories_nodes":[],"categories_segments":[],"categories_sizes":[],"default_left":[0,0,0,0,0,0,0,0,0],"id":82,"left_children":[1,3,5,-1,7,-1,-1,-1,-1],"loss_changes":[3.499558E2,6.791382E-1,2.6977539E-2,0E0,1.07940674E-1,0E0,0E0,0E0,0E0],"parents":[2147483647,0,0,1,1,2,2,4,4],"right_children":[2,4,6,-1,8,-1,-1,-1,-1],"split_conditions":[1E0,4.7E1,7E0,2.9901555E-3,1.6E1,1.1926929E-2,1.340311E-2,3.2772946E-3,3.101177E-3],"split_indices":[4,0,1,0,1,0,0,0,0],"split_type":[0,0,0,0,0,0,0,0,0],"sum_hessian":[7.548E3,7.175E3,3.73E2,4.402E3,2.773E3,1.11E2,2.62E2,1.591E3,1.182E3],"tree_param":{"num_deleted":"0","num_feature":"5","num_nodes":"9","size_leaf_vector":"1"}},{"base_weights":[3.529455E-1,3.0422768E-1,1.286759E0,2.960261E-3,3.1713584E-1,1.1808725E-2,1.3269587E-2,2.773934E-3,3.1892213E-3],"categories":[],"categories_nodes":[],"categories_segments":[],"categories_sizes":[],"default_left":[0,0,0,0,0,0,0,0,0],"id":83,"left_children":[1,3,5,-1,7,-1,-1,-1,-1],"loss_changes":[3.4303796E2,6.6589355E-1,2.5024414E-2,0E0,1.0845947E-1,0E0,0E0,0E0,0E0],"parents":[2147483647,0,0,1,1,2,2,4,4],"right_children":[2,4,6,-1,8,-1,-1,-1,-1],"split_conditions":[1E0,4.7E1,7E0,2.960261E-3,1E0,1.1808725E-2,1.3269587E-2,2.773934E-3,3.1892213E-3],"split_indices":[4,0,1,0,1,0,0,0,0],"split_type":[0,0,0,0,0,0,0,0,0],"sum_hessian":[7.548E3,7.175E3,3.73E2,4.402E3,2.773E3,1.11E2,2.62E2,1.26E2,2.647E3],"tree_param":{"num_deleted":"0","num_feature":"5","num_nodes":"9","size_leaf_vector":"1"}},{"base_weights":[3.4942058E-1,3.0118665E-1,1.2739586E0,3.139151E-1,2.9303262E-1,1.1691693E-2,1.3137396E-2,3.2758368E-3,3.0836586E-3,3.0275472E-3,2.9093593E-3],"categories":[],"categories_nodes":[],"categories_segments":[],"categories_sizes":[],"default_left":[0,0,0,0,0,0,0,0,0,0,0],"id":84,"left_children":[1,3,5,7,9,-1,-1,-1,-1,-1,-1],"loss_changes":[3.3625708E2,6.5283203E-1,2.3071289E-2,1.1047363E-1,1.4038086E-3,0E0,0E0,0E0,0E0,0E0,0E0],"parents":[2147483647,0,0,1,1,2,2,3,3,4,4],"right_children":[2,4,6,8,10,-1,-1,-1,-1,-1,-1],"split_conditions":[1E0,5E0,7E0,8E0,6E0,1.1691693E-2,1.3137396E-2,3.2758368E-3,3.0836586E-3,3.0275472E-3,2.9093593E-3],"split_indices":[4,2,1,1,1,0,0,0,0,0,0],"split_type":[0,0,0,0,0,0,0,0,0,0,0],"sum_hessian":[7.548E3,7.175E3,3.73E2,2.787E3,4.388E3,1.11E2,2.62E2,7.88E2,1.999E3,7.53E2,3.635E3],"tree_param":{"num_deleted":"0","num_feature":"5","num_nodes":"11","size_leaf_vector":"1"}},{"base_weights":[3.459313E-1,2.981765E-1,1.2612853E0,3.1077823E-1,2.901036E-1,1.1575819E-2,1.3006522E-2,2.7139126E-3,3.1254059E-3,2.997312E-3,2.8802734E-3],"categories":[],"categories_nodes":[],"categories_segments":[],"categories_sizes":[],"default_left":[0,0,0,0,0,0,0,0,0,0,0],"id":85,"left_children":[1,3,5,7,9,-1,-1,-1,-1,-1,-1],"loss_changes":[3.2960992E2,6.3983154E-1,2.130127E-2,1.0870361E-1,1.4038086E-3,0E0,0E0,0E0,0E0,0E0,0E0],"parents":[2147483647,0,0,1,1,2,2,3,3,4,4],"right_children":[2,4,6,8,10,-1,-1,-1,-1,-1,-1],"split_conditions":[1E0,5E0,7E0,1E0,6E0,1.1575819E-2,1.3006522E-2,2.7139126E-3,3.1254059E-3,2.997312E-3,2.8802734E-3],"split_indices":[4,2,1,1,1,0,0,0,0,0,0],"split_type":[0,0,0,0,0,0,0,0,0,0,0],"sum_hessian":[7.548E3,7.175E3,3.73E2,2.787E3,4.388E3,1.11E2,2.62E2,1.26E2,2.661E3,7.53E2,3.635E3],"tree_param":{"num_deleted":"0","num_feature":"5","num_nodes":"11","size_leaf_vector":"1"}},{"base_weights":[3.4247676E-1,2.9519635E-1,1.2487382E0,2.8723663E-1,3.077239E-1,1.1461093E-2,1.2876953E-2,2.9673784E-3,2.8519523E-3,3.1756877E-3,3.0014932E-3],"categories":[],"categories_nodes":[],"categories_segments":[],"categories_sizes":[],"default_left":[0,0,0,0,0,0,0,0,0,0,0],"id":86,"left_children":[1,3,5,7,9,-1,-1,-1,-1,-1,-1],"loss_changes":[3.2309406E2,6.2719727E-1,1.9470215E-2,7.6293945E-4,1.1151123E-1,0E0,0E0,0E0,0E0,0E0,0E0],"parents":[2147483647,0,0,1,1,2,2,3,3,4,4],"right_children":[2,4,6,8,10,-1,-1,-1,-1,-1,-1],"split_conditions":[1E0,4.7E1,7E0,6E0,1.3E1,1.1461093E-2,1.2876953E-2,2.9673784E-3,2.8519523E-3,3.1756877E-3,3.0014932E-3],"split_indices":[4,0,1,1,1,0,0,0,0,0,0],"split_type":[0,0,0,0,0,0,0,0,0,0,0],"sum_hessian":[7.548E3,7.175E3,3.73E2,4.402E3,2.773E3,1.11E2,2.62E2,7.53E2,3.649E3,1.188E3,1.585E3],"tree_param":{"num_deleted":"0","num_feature":"5","num_nodes":"11","size_leaf_vector":"1"}},{"base_weights":[3.3905682E-1,2.9224604E-1,1.2363158E0,3.0459863E-1,2.843328E-1,1.1347506E-2,1.2748672E-2,3.180846E-3,2.9912612E-3,2.9377441E-3,2.8229668E-3],"categories":[],"categories_nodes":[],"categories_segments":[],"categories_sizes":[],"default_left":[0,0,0,0,0,0,0,0,0,0,0],"id":87,"left_children":[1,3,5,7,9,-1,-1,-1,-1,-1,-1],"loss_changes":[3.167071E2,6.147461E-1,1.776123E-2,1.1062622E-1,1.4038086E-3,0E0,0E0,0E0,0E0,0E0,0E0],"parents":[2147483647,0,0,1,1,2,2,3,3,4,4],"right_children":[2,4,6,8,10,-1,-1,-1,-1,-1,-1],"split_conditions":[1E0,5E0,7E0,8E0,6E0,1.1347506E-2,1.2748672E-2,3.180846E-3,2.9912612E-3,2.9377441E-3,2.8229668E-3],"split_indices":[4,2,1,1,1,0,0,0,0,0,0],"split_type":[0,0,0,0,0,0,0,0,0,0,0],"sum_hessian":[7.548E3,7.175E3,3.73E2,2.787E3,4.388E3,1.11E2,2.62E2,7.88E2,1.999E3,7.53E2,3.635E3],"tree_param":{"num_deleted":"0","num_feature":"5","num_nodes":"11","size_leaf_vector":"1"}},{"base_weights":[3.35671E-1,2.8932524E-1,1.2240171E0,3.0155486E-1,2.8149077E-1,1.1688169E-2,1.2986572E-2,2.6239222E-3,3.0330995E-3,2.9084056E-3,2.7947447E-3],"categories":[],"categories_nodes":[],"categories_segments":[],"categories_sizes":[],"default_left":[0,0,0,0,0,0,0,0,0,0,0],"id":88,"left_children":[1,3,5,7,9,-1,-1,-1,-1,-1,-1],"loss_changes":[3.104463E2,6.0272217E-1,2.3071289E-2,1.1203003E-1,1.4648438E-3,0E0,0E0,0E0,0E0,0E0,0E0],"parents":[2147483647,0,0,1,1,2,2,3,3,4,4],"right_children":[2,4,6,8,10,-1,-1,-1,-1,-1,-1],"split_conditions":[1E0,5E0,8E0,1E0,6E0,1.1688169E-2,1.2986572E-2,2.6239222E-3,3.0330995E-3,2.9084056E-3,2.7947447E-3],"split_indices":[4,2,1,1,1,0,0,0,0,0,0],"split_type":[0,0,0,0,0,0,0,0,0,0,0],"sum_hessian":[7.548E3,7.175E3,3.73E2,2.787E3,4.388E3,2.24E2,1.49E2,1.26E2,2.661E3,7.53E2,3.635E3],"tree_param":{"num_deleted":"0","num_feature":"5","num_nodes":"11","size_leaf_vector":"1"}},{"base_weights":[3.3231905E-1,2.8643358E-1,1.2118429E0,2.7870876E-1,2.9859143E-1,1.11192055E-2,1.2497876E-2,2.8793602E-3,2.7672627E-3,3.0582051E-3,2.8861058E-3],"categories":[],"categories_nodes":[],"categories_segments":[],"categories_sizes":[],"default_left":[0,0,0,0,0,0,0,0,0,0,0],"id":89,"left_children":[1,3,5,7,9,-1,-1,-1,-1,-1,-1],"loss_changes":[3.0431067E2,5.907593E-1,2.8320312E-2,8.8500977E-4,1.118927E-1,0E0,0E0,0E0,0E0,0E0,0E0],"parents":[2147483647,0,0,1,1,2,2,3,3,4,4],"right_children":[2,4,6,8,10,-1,-1,-1,-1,-1,-1],"split_conditions":[1E0,4.7E1,7E0,6E0,1.6E1,1.11192055E-2,1.2497876E-2,2.8793602E-3,2.7672627E-3,3.0582051E-3,2.8861058E-3],"split_indices":[4,0,1,1,1,0,0,0,0,0,0],"split_type":[0,0,0,0,0,0,0,0,0,0,0],"sum_hessian":[7.548E3,7.175E3,3.73E2,4.402E3,2.773E3,1.11E2,2.62E2,7.53E2,3.649E3,1.591E3,1.182E3],"tree_param":{"num_deleted":"0","num_feature":"5","num_nodes":"11","size_leaf_vector":"1"}},{"base_weights":[3.2900053E-1,2.8357086E-1,1.1997876E0,2.9555866E-1,2.758913E-1,1.1454185E-2,1.2733426E-2,2.5675488E-3,2.9729886E-3,2.8506045E-3,2.73914E-3],"categories":[],"categories_nodes":[],"categories_segments":[],"categories_sizes":[],"default_left":[0,0,0,0,0,0,0,0,0,0,0],"id":90,"left_children":[1,3,5,7,9,-1,-1,-1,-1,-1,-1],"loss_changes":[2.9829498E2,5.7910156E-1,3.7109375E-2,1.1193848E-1,1.4953613E-3,0E0,0E0,0E0,0E0,0E0,0E0],"parents":[2147483647,0,0,1,1,2,2,3,3,4,4],"right_children":[2,4,6,8,10,-1,-1,-1,-1,-1,-1],"split_conditions":[1E0,5E0,8E0,1E0,6E0,1.1454185E-2,1.2733426E-2,2.5675488E-3,2.9729886E-3,2.8506045E-3,2.73914E-3],"split_indices":[4,2,1,1,1,0,0,0,0,0,0],"split_type":[0,0,0,0,0,0,0,0,0,0,0],"sum_hessian":[7.548E3,7.175E3,3.73E2,2.787E3,4.388E3,2.24E2,1.49E2,1.26E2,2.661E3,7.53E2,3.635E3],"tree_param":{"num_deleted":"0","num_feature":"5","num_nodes":"11","size_leaf_vector":"1"}},{"base_weights":[3.257152E-1,2.807367E-1,1.1878544E0,2.7316463E-1,2.926542E-1,1.0895488E-2,1.2252018E-2,2.8221365E-3,2.712205E-3,3.0598512E-3,2.8721069E-3],"categories":[],"categories_nodes":[],"categories_segments":[],"categories_sizes":[],"default_left":[0,0,0,0,0,0,0,0,0,0,0],"id":91,"left_children":[1,3,5,7,9,-1,-1,-1,-1,-1,-1],"loss_changes":[2.9239966E2,5.6762695E-1,3.8208008E-2,9.1552734E-4,1.1341858E-1,0E0,0E0,0E0,0E0,0E0,0E0],"parents":[2147483647,0,0,1,1,2,2,3,3,4,4],"right_children":[2,4,6,8,10,-1,-1,-1,-1,-1,-1],"split_conditions":[1E0,4.7E1,7E0,6E0,8E0,1.0895488E-2,1.2252018E-2,2.8221365E-3,2.712205E-3,3.0598512E-3,2.8721069E-3],"split_indices":[4,0,1,1,1,0,0,0,0,0,0],"split_type":[0,0,0,0,0,0,0,0,0,0,0],"sum_hessian":[7.548E3,7.175E3,3.73E2,4.402E3,2.773E3,1.11E2,2.62E2,7.53E2,3.649E3,7.88E2,1.985E3],"tree_param":{"num_deleted":"0","num_feature":"5","num_nodes":"11","size_leaf_vector":"1"}},{"base_weights":[3.2246265E-1,2.7793095E-1,1.1760377E0,2.8968173E-1,2.7040324E-1,1.122487E-2,1.2485237E-2,2.5117178E-3,2.9141018E-3,2.7939521E-3,2.6846416E-3],"categories":[],"categories_nodes":[],"categories_segments":[],"categories_sizes":[],"default_left":[0,0,0,0,0,0,0,0,0,0,0],"id":92,"left_children":[1,3,5,7,9,-1,-1,-1,-1,-1,-1],"loss_changes":[2.866195E2,5.563965E-1,5.029297E-2,1.1236572E-1,1.5563965E-3,0E0,0E0,0E0,0E0,0E0,0E0],"parents":[2147483647,0,0,1,1,2,2,3,3,4,4],"right_children":[2,4,6,8,10,-1,-1,-1,-1,-1,-1],"split_conditions":[1E0,5E0,8E0,1E0,6E0,1.122487E-2,1.2485237E-2,2.5117178E-3,2.9141018E-3,2.7939521E-3,2.6846416E-3],"split_indices":[4,2,1,1,1,0,0,0,0,0,0],"split_type":[0,0,0,0,0,0,0,0,0,0,0],"sum_hessian":[7.548E3,7.175E3,3.73E2,2.787E3,4.388E3,2.24E2,1.49E2,1.26E2,2.661E3,7.53E2,3.635E3],"tree_param":{"num_deleted":"0","num_feature":"5","num_nodes":"11","size_leaf_vector":"1"}},{"base_weights":[3.192426E-1,2.7515313E-1,1.1643406E0,2.677308E-1,2.8683496E-1,1.1113117E-2,1.2361216E-2,2.7660497E-3,2.6582426E-3,3.0008294E-3,2.8142736E-3],"categories":[],"categories_nodes":[],"categories_segments":[],"categories_sizes":[],"default_left":[0,0,0,0,0,0,0,0,0,0,0],"id":93,"left_children":[1,3,5,7,9,-1,-1,-1,-1,-1,-1],"loss_changes":[2.8095465E2,5.4541016E-1,4.989624E-2,9.460449E-4,1.1425781E-1,0E0,0E0,0E0,0E0,0E0,0E0],"parents":[2147483647,0,0,1,1,2,2,3,3,4,4],"right_children":[2,4,6,8,10,-1,-1,-1,-1,-1,-1],"split_conditions":[1E0,4.7E1,8E0,6E0,8E0,1.1113117E-2,1.2361216E-2,2.7660497E-3,2.6582426E-3,3.0008294E-3,2.8142736E-3],"split_indices":[4,0,1,1,1,0,0,0,0,0,0],"split_type":[0,0,0,0,0,0,0,0,0,0,0],"sum_hessian":[7.548E3,7.175E3,3.73E2,4.402E3,2.773E3,2.24E2,1.49E2,7.53E2,3.649E3,7.88E2,1.985E3],"tree_param":{"num_deleted":"0","num_feature":"5","num_nodes":"11","size_leaf_vector":"1"}},{"base_weights":[3.1605473E-1,2.7240315E-1,1.1527599E0,2.839216E-1,2.650243E-1,1.0566119E-2,1.1893219E-2,2.970859E-3,2.7858631E-3,2.7384257E-3,2.6312273E-3],"categories":[],"categories_nodes":[],"categories_segments":[],"categories_sizes":[],"default_left":[0,0,0,0,0,0,0,0,0,0,0],"id":94,"left_children":[1,3,5,7,9,-1,-1,-1,-1,-1,-1],"loss_changes":[2.7540204E2,5.3466797E-1,5.810547E-2,1.1305237E-1,1.5258789E-3,0E0,0E0,0E0,0E0,0E0,0E0],"parents":[2147483647,0,0,1,1,2,2,3,3,4,4],"right_children":[2,4,6,8,10,-1,-1,-1,-1,-1,-1],"split_conditions":[1E0,5E0,7E0,8E0,6E0,1.0566119E-2,1.1893219E-2,2.970859E-3,2.7858631E-3,2.7384257E-3,2.6312273E-3],"split_indices":[4,2,1,1,1,0,0,0,0,0,0],"split_type":[0,0,0,0,0,0,0,0,0,0,0],"sum_hessian":[7.548E3,7.175E3,3.73E2,2.787E3,4.388E3,1.11E2,2.62E2,7.88E2,1.999E3,7.53E2,3.635E3],"tree_param":{"num_deleted":"0","num_feature":"5","num_nodes":"11","size_leaf_vector":"1"}},{"base_weights":[3.1289864E-1,2.6968068E-1,1.1412923E0,2.8108445E-1,2.6237527E-1,1.0890623E-2,1.2120287E-2,2.4275512E-3,2.8280749E-3,2.711078E-3,2.6049223E-3],"categories":[],"categories_nodes":[],"categories_segments":[],"categories_sizes":[],"default_left":[0,0,0,0,0,0,0,0,0,0,0],"id":95,"left_children":[1,3,5,7,9,-1,-1,-1,-1,-1,-1],"loss_changes":[2.6995776E2,5.2404785E-1,6.173706E-2,1.15493774E-1,1.5258789E-3,0E0,0E0,0E0,0E0,0E0,0E0],"parents":[2147483647,0,0,1,1,2,2,3,3,4,4],"right_children":[2,4,6,8,10,-1,-1,-1,-1,-1,-1],"split_conditions":[1E0,5E0,8E0,1E0,6E0,1.0890623E-2,1.2120287E-2,2.4275512E-3,2.8280749E-3,2.711078E-3,2.6049223E-3],"split_indices":[4,2,1,1,1,0,0,0,0,0,0],"split_type":[0,0,0,0,0,0,0,0,0,0,0],"sum_hessian":[7.548E3,7.175E3,3.73E2,2.787E3,4.388E3,2.24E2,1.49E2,1.26E2,2.661E3,7.53E2,3.635E3],"tree_param":{"num_deleted":"0","num_feature":"5","num_nodes":"11","size_leaf_vector":"1"}},{"base_weights":[3.097741E-1,2.6698536E-1,1.1299409E0,2.5978208E-1,2.7832243E-1,1.03534665E-2,1.16592795E-2,2.684003E-3,2.5793058E-3,2.854064E-3,2.6855404E-3],"categories":[],"categories_nodes":[],"categories_segments":[],"categories_sizes":[],"default_left":[0,0,0,0,0,0,0,0,0,0,0],"id":96,"left_children":[1,3,5,7,9,-1,-1,-1,-1,-1,-1],"loss_changes":[2.6462238E2,5.137329E-1,6.600952E-2,1.0375977E-3,1.1531067E-1,0E0,0E0,0E0,0E0,0E0,0E0],"parents":[2147483647,0,0,1,1,2,2,3,3,4,4],"right_children":[2,4,6,8,10,-1,-1,-1,-1,-1,-1],"split_conditions":[1E0,4.7E1,7E0,6E0,1.6E1,1.03534665E-2,1.16592795E-2,2.684003E-3,2.5793058E-3,2.854064E-3,2.6855404E-3],"split_indices":[4,0,1,1,1,0,0,0,0,0,0],"split_type":[0,0,0,0,0,0,0,0,0,0,0],"sum_hessian":[7.548E3,7.175E3,3.73E2,4.402E3,2.773E3,1.11E2,2.62E2,7.53E2,3.649E3,1.591E3,1.182E3],"tree_param":{"num_deleted":"0","num_feature":"5","num_nodes":"11","size_leaf_vector":"1"}},{"base_weights":[3.066807E-1,2.6431698E-1,1.1187003E0,2.754953E-1,2.5715604E-1,1.0672566E-2,1.18840765E-2,2.3751508E-3,2.7720376E-3,2.6571988E-3,2.5530942E-3],"categories":[],"categories_nodes":[],"categories_segments":[],"categories_sizes":[],"default_left":[0,0,0,0,0,0,0,0,0,0,0],"id":97,"left_children":[1,3,5,7,9,-1,-1,-1,-1,-1,-1],"loss_changes":[2.5939117E2,5.036011E-1,7.2784424E-2,1.1505127E-1,1.5563965E-3,0E0,0E0,0E0,0E0,0E0,0E0],"parents":[2147483647,0,0,1,1,2,2,3,3,4,4],"right_children":[2,4,6,8,10,-1,-1,-1,-1,-1,-1],"split_conditions":[1E0,5E0,8E0,1E0,6E0,1.0672566E-2,1.18840765E-2,2.3751508E-3,2.7720376E-3,2.6571988E-3,2.5530942E-3],"split_indices":[4,2,1,1,1,0,0,0,0,0,0],"split_type":[0,0,0,0,0,0,0,0,0,0,0],"sum_hessian":[7.548E3,7.175E3,3.73E2,2.787E3,4.388E3,2.24E2,1.49E2,1.26E2,2.661E3,7.53E2,3.635E3],"tree_param":{"num_deleted":"0","num_feature":"5","num_nodes":"11","size_leaf_vector":"1"}},{"base_weights":[3.0361825E-1,2.6167527E-1,1.1075736E0,2.546144E-1,2.727882E-1,1.0145081E-2,1.1429948E-2,2.5991243E-3,2.5174513E-3,2.8224366E-3,2.655276E-3],"categories":[],"categories_nodes":[],"categories_segments":[],"categories_sizes":[],"default_left":[0,0,0,0,0,0,0,0,0,0,0],"id":98,"left_children":[1,3,5,7,9,-1,-1,-1,-1,-1,-1],"loss_changes":[2.5426465E2,4.9365234E-1,7.333374E-2,1.4648438E-3,1.15478516E-1,0E0,0E0,0E0,0E0,0E0,0E0],"parents":[2147483647,0,0,1,1,2,2,3,3,4,4],"right_children":[2,4,6,8,10,-1,-1,-1,-1,-1,-1],"split_conditions":[1E0,4.7E1,7E0,1.2E1,1.3E1,1.0145081E-2,1.1429948E-2,2.5991243E-3,2.5174513E-3,2.8224366E-3,2.655276E-3],"split_indices":[4,0,1,1,1,0,0,0,0,0,0],"split_type":[0,0,0,0,0,0,0,0,0,0,0],"sum_hessian":[7.548E3,7.175E3,3.73E2,4.402E3,2.773E3,1.11E2,2.62E2,1.515E3,2.887E3,1.188E3,1.585E3],"tree_param":{"num_deleted":"0","num_feature":"5","num_nodes":"11","size_leaf_vector":"1"}},{"base_weights":[3.005863E-1,2.5906E-1,1.0965555E0,2.520694E-1,2.700623E-1,1.04588615E-2,1.1652491E-2,2.6047057E-3,2.5026489E-3,2.3235842E-3,2.717686E-3],"categories":[],"categories_nodes":[],"categories_segments":[],"categories_sizes":[],"default_left":[0,0,0,0,0,0,0,0,0,0,0],"id":99,"left_children":[1,3,5,7,9,-1,-1,-1,-1,-1,-1],"loss_changes":[2.4923822E2,4.8388672E-1,8.306885E-2,1.5563965E-3,1.1529541E-1,0E0,0E0,0E0,0E0,0E0,0E0],"parents":[2147483647,0,0,1,1,2,2,3,3,4,4],"right_children":[2,4,6,8,10,-1,-1,-1,-1,-1,-1],"split_conditions":[1E0,4.7E1,8E0,6E0,1E0,1.04588615E-2,1.1652491E-2,2.6047057E-3,2.5026489E-3,2.3235842E-3,2.717686E-3],"split_indices":[4,0,1,1,1,0,0,0,0,0,0],"split_type":[0,0,0,0,0,0,0,0,0,0,0],"sum_hessian":[7.548E3,7.175E3,3.73E2,4.402E3,2.773E3,2.24E2,1.49E2,7.53E2,3.649E3,1.26E2,2.647E3],"tree_param":{"num_deleted":"0","num_feature":"5","num_nodes":"11","size_leaf_vector":"1"}},{"base_weights":[2.9758474E-1,2.564708E-1,1.085649E0,2.673191E-1,2.4952127E-1,1.0354736E-2,1.15367435E-2,2.8033252E-3,2.6205166E-3,2.578693E-3,2.4772151E-3],"categories":[],"categories_nodes":[],"categories_segments":[],"categories_sizes":[],"default_left":[0,0,0,0,0,0,0,0,0,0,0],"id":100,"left_children":[1,3,5,7,9,-1,-1,-1,-1,-1,-1],"loss_changes":[2.4431238E2,4.7433472E-1,8.19397E-2,1.1766052E-1,2.0751953E-3,0E0,0E0,0E0,0E0,0E0,0E0],"parents":[2147483647,0,0,1,1,2,2,3,3,4,4],"right_children":[2,4,6,8,10,-1,-1,-1,-1,-1,-1],"split_conditions":[1E0,5E0,8E0,8E0,6E0,1.0354736E-2,1.15367435E-2,2.8033252E-3,2.6205166E-3,2.578693E-3,2.4772151E-3],"split_indices":[4,2,1,1,1,0,0,0,0,0,0],"split_type":[0,0,0,0,0,0,0,0,0,0,0],"sum_hessian":[7.548E3,7.175E3,3.73E2,2.787E3,4.388E3,2.24E2,1.49E2,7.88E2,1.999E3,7.53E2,3.635E3],"tree_param":{"num_deleted":"0","num_feature":"5","num_nodes":"11","size_leaf_vector":"1"}},{"base_weights":[2.9461318E-1,2.5390756E-1,1.0748509E0,2.4705543E-1,2.64692E-1,9.838257E-3,1.1095277E-2,2.5223603E-3,2.442504E-3,2.2727188E-3,2.663867E-3],"categories":[],"categories_nodes":[],"categories_segments":[],"categories_sizes":[],"default_left":[0,0,0,0,0,0,0,0,0,0,0],"id":101,"left_children":[1,3,5,7,9,-1,-1,-1,-1,-1,-1],"loss_changes":[2.3948383E2,4.6487427E-1,8.892822E-2,2.3498535E-3,1.1540222E-1,0E0,0E0,0E0,0E0,0E0,0E0],"parents":[2147483647,0,0,1,1,2,2,3,3,4,4],"right_children":[2,4,6,8,10,-1,-1,-1,-1,-1,-1],"split_conditions":[1E0,4.7E1,7E0,1.2E1,1E0,9.838257E-3,1.1095277E-2,2.5223603E-3,2.442504E-3,2.2727188E-3,2.663867E-3],"split_indices":[4,0,1,1,1,0,0,0,0,0,0],"split_type":[0,0,0,0,0,0,0,0,0,0,0],"sum_hessian":[7.548E3,7.175E3,3.73E2,4.402E3,2.773E3,1.11E2,2.62E2,1.515E3,2.887E3,1.26E2,2.647E3],"tree_param":{"num_deleted":"0","num_feature":"5","num_nodes":"11","size_leaf_vector":"1"}},{"base_weights":[2.9167116E-1,2.513699E-1,1.0641584E0,2.6200336E-1,2.4455796E-1,1.014739E-2,1.1311931E-2,2.7493474E-3,2.567709E-3,2.5277503E-3,2.4278674E-3],"categories":[],"categories_nodes":[],"categories_segments":[],"categories_sizes":[],"default_left":[0,0,0,0,0,0,0,0,0,0,0],"id":102,"left_children":[1,3,5,7,9,-1,-1,-1,-1,-1,-1],"loss_changes":[2.3474963E2,4.5568848E-1,9.112549E-2,1.1805725E-1,2.5024414E-3,0E0,0E0,0E0,0E0,0E0,0E0],"parents":[2147483647,0,0,1,1,2,2,3,3,4,4],"right_children":[2,4,6,8,10,-1,-1,-1,-1,-1,-1],"split_conditions":[1E0,5E0,8E0,8E0,6E0,1.014739E-2,1.1311931E-2,2.7493474E-3,2.567709E-3,2.5277503E-3,2.4278674E-3],"split_indices":[4,2,1,1,1,0,0,0,0,0,0],"split_type":[0,0,0,0,0,0,0,0,0,0,0],"sum_hessian":[7.548E3,7.175E3,3.73E2,2.787E3,4.388E3,2.24E2,1.49E2,7.88E2,1.999E3,7.53E2,3.635E3],"tree_param":{"num_deleted":"0","num_feature":"5","num_nodes":"11","size_leaf_vector":"1"}},{"base_weights":[2.8875864E-1,2.4885762E-1,1.0535742E0,2.5938523E-1,2.421135E-1,9.640184E-3,1.087706E-2,2.721889E-3,2.542045E-3,2.5025061E-3,2.403595E-3],"categories":[],"categories_nodes":[],"categories_segments":[],"categories_sizes":[],"default_left":[0,0,0,0,0,0,0,0,0,0,0],"id":103,"left_children":[1,3,5,7,9,-1,-1,-1,-1,-1,-1],"loss_changes":[2.301101E2,4.467163E-1,9.463501E-2,1.15737915E-1,2.5024414E-3,0E0,0E0,0E0,0E0,0E0,0E0],"parents":[2147483647,0,0,1,1,2,2,3,3,4,4],"right_children":[2,4,6,8,10,-1,-1,-1,-1,-1,-1],"split_conditions":[1E0,5E0,7E0,8E0,6E0,9.640184E-3,1.087706E-2,2.721889E-3,2.542045E-3,2.5025061E-3,2.403595E-3],"split_indices":[4,2,1,1,1,0,0,0,0,0,0],"split_type":[0,0,0,0,0,0,0,0,0,0,0],"sum_hessian":[7.548E3,7.175E3,3.73E2,2.787E3,4.388E3,1.11E2,2.62E2,7.88E2,1.999E3,7.53E2,3.635E3],"tree_param":{"num_deleted":"0","num_feature":"5","num_nodes":"11","size_leaf_vector":"1"}},{"base_weights":[2.858751E-1,2.4637045E-1,1.0430932E0,2.3972075E-1,2.568363E-1,9.944182E-3,1.1091518E-2,2.4478573E-3,2.3697896E-3,2.195889E-3,2.585257E-3],"categories":[],"categories_nodes":[],"categories_segments":[],"categories_sizes":[],"default_left":[0,0,0,0,0,0,0,0,0,0,0],"id":104,"left_children":[1,3,5,7,9,-1,-1,-1,-1,-1,-1],"loss_changes":[2.255611E2,4.378662E-1,9.963989E-2,3.1280518E-3,1.1778259E-1,0E0,0E0,0E0,0E0,0E0,0E0],"parents":[2147483647,0,0,1,1,2,2,3,3,4,4],"right_children":[2,4,6,8,10,-1,-1,-1,-1,-1,-1],"split_conditions":[1E0,4.7E1,8E0,1.2E1,1E0,9.944182E-3,1.1091518E-2,2.4478573E-3,2.3697896E-3,2.195889E-3,2.585257E-3],"split_indices":[4,0,1,1,1,0,0,0,0,0,0],"split_type":[0,0,0,0,0,0,0,0,0,0,0],"sum_hessian":[7.548E3,7.175E3,3.73E2,4.402E3,2.773E3,2.24E2,1.49E2,1.515E3,2.887E3,1.26E2,2.647E3],"tree_param":{"num_deleted":"0","num_feature":"5","num_nodes":"11","size_leaf_vector":"1"}},{"base_weights":[2.8302044E-1,2.439081E-1,1.0327185E0,2.3732466E-1,2.542697E-1,9.446089E-3,1.0663139E-2,2.4233952E-3,2.3461E-3,2.611733E-3,2.4476429E-3],"categories":[],"categories_nodes":[],"categories_segments":[],"categories_sizes":[],"default_left":[0,0,0,0,0,0,0,0,0,0,0],"id":105,"left_children":[1,3,5,7,9,-1,-1,-1,-1,-1,-1],"loss_changes":[2.2110327E2,4.2919922E-1,9.9823E-2,3.0822754E-3,1.18118286E-1,0E0,0E0,0E0,0E0,0E0,0E0],"parents":[2147483647,0,0,1,1,2,2,3,3,4,4],"right_children":[2,4,6,8,10,-1,-1,-1,-1,-1,-1],"split_conditions":[1E0,4.7E1,7E0,1.2E1,1.6E1,9.446089E-3,1.0663139E-2,2.4233952E-3,2.3461E-3,2.611733E-3,2.4476429E-3],"split_indices":[4,0,1,1,1,0,0,0,0,0,0],"split_type":[0,0,0,0,0,0,0,0,0,0,0],"sum_hessian":[7.548E3,7.175E3,3.73E2,4.402E3,2.773E3,1.11E2,2.62E2,1.515E3,2.887E3,1.591E3,1.182E3],"tree_param":{"num_deleted":"0","num_feature":"5","num_nodes":"11","size_leaf_vector":"1"}},{"base_weights":[2.801942E-1,2.4147038E-1,1.0224452E0,2.349525E-1,2.5172877E-1,9.745029E-3,1.0875423E-2,2.399177E-3,2.3226473E-3,2.1481912E-3,2.5340393E-3],"categories":[],"categories_nodes":[],"categories_segments":[],"categories_sizes":[],"default_left":[0,0,0,0,0,0,0,0,0,0,0],"id":106,"left_children":[1,3,5,7,9,-1,-1,-1,-1,-1,-1],"loss_changes":[2.1673248E2,4.206848E-1,1.0739136E-1,3.0212402E-3,1.1708069E-1,0E0,0E0,0E0,0E0,0E0,0E0],"parents":[2147483647,0,0,1,1,2,2,3,3,4,4],"right_children":[2,4,6,8,10,-1,-1,-1,-1,-1,-1],"split_conditions":[1E0,4.7E1,8E0,1.2E1,1E0,9.745029E-3,1.0875423E-2,2.399177E-3,2.3226473E-3,2.1481912E-3,2.5340393E-3],"split_indices":[4,0,1,1,1,0,0,0,0,0,0],"split_type":[0,0,0,0,0,0,0,0,0,0,0],"sum_hessian":[7.548E3,7.175E3,3.73E2,4.402E3,2.773E3,2.24E2,1.49E2,1.515E3,2.887E3,1.26E2,2.647E3],"tree_param":{"num_deleted":"0","num_feature":"5","num_nodes":"11","size_leaf_vector":"1"}},{"base_weights":[2.773962E-1,2.3905697E-1,1.0122758E0,2.4917196E-1,2.3257722E-1,9.64801E-3,1.0767394E-2,2.61873E-3,2.4403678E-3,2.404906E-3,2.3087226E-3],"categories":[],"categories_nodes":[],"categories_segments":[],"categories_sizes":[],"default_left":[0,0,0,0,0,0,0,0,0,0,0],"id":107,"left_children":[1,3,5,7,9,-1,-1,-1,-1,-1,-1],"loss_changes":[2.1244897E2,4.1238403E-1,1.0574341E-1,1.1793518E-1,3.692627E-3,0E0,0E0,0E0,0E0,0E0,0E0],"parents":[2147483647,0,0,1,1,2,2,3,3,4,4],"right_children":[2,4,6,8,10,-1,-1,-1,-1,-1,-1],"split_conditions":[1E0,5E0,8E0,8E0,6E0,9.64801E-3,1.0767394E-2,2.61873E-3,2.4403678E-3,2.404906E-3,2.3087226E-3],"split_indices":[4,2,1,1,1,0,0,0,0,0,0],"split_type":[0,0,0,0,0,0,0,0,0,0,0],"sum_hessian":[7.548E3,7.175E3,3.73E2,2.787E3,4.388E3,2.24E2,1.49E2,7.88E2,1.999E3,7.53E2,3.635E3],"tree_param":{"num_deleted":"0","num_feature":"5","num_nodes":"11","size_leaf_vector":"1"}},{"base_weights":[2.7462623E-1,2.3666775E-1,1.0022076E0,2.3027894E-1,2.4672301E-1,9.160271E-3,1.0350973E-2,2.3516389E-3,2.2763496E-3,2.5353415E-3,2.3734847E-3],"categories":[],"categories_nodes":[],"categories_segments":[],"categories_sizes":[],"default_left":[0,0,0,0,0,0,0,0,0,0,0],"id":108,"left_children":[1,3,5,7,9,-1,-1,-1,-1,-1,-1],"loss_changes":[2.0825024E2,4.0420532E-1,1.1190796E-1,3.326416E-3,1.1694336E-1,0E0,0E0,0E0,0E0,0E0,0E0],"parents":[2147483647,0,0,1,1,2,2,3,3,4,4],"right_children":[2,4,6,8,10,-1,-1,-1,-1,-1,-1],"split_conditions":[1E0,4.7E1,7E0,1.2E1,1.6E1,9.160271E-3,1.0350973E-2,2.3516389E-3,2.2763496E-3,2.5353415E-3,2.3734847E-3],"split_indices":[4,0,1,1,1,0,0,0,0,0,0],"split_type":[0,0,0,0,0,0,0,0,0,0,0],"sum_hessian":[7.548E3,7.175E3,3.73E2,4.402E3,2.773E3,1.11E2,2.62E2,1.515E3,2.887E3,1.591E3,1.182E3],"tree_param":{"num_deleted":"0","num_feature":"5","num_nodes":"11","size_leaf_vector":"1"}},{"base_weights":[2.7188382E-1,2.343024E-1,9.922377E-1,2.4421716E-1,2.2795093E-1,9.454783E-3,1.0557618E-2,2.0757432E-3,2.4587358E-3,2.3574035E-3,2.2627295E-3],"categories":[],"categories_nodes":[],"categories_segments":[],"categories_sizes":[],"default_left":[0,0,0,0,0,0,0,0,0,0,0],"id":109,"left_children":[1,3,5,7,9,-1,-1,-1,-1,-1,-1],"loss_changes":[2.0413342E2,3.9624023E-1,1.12701416E-1,1.1816406E-1,4.0130615E-3,0E0,0E0,0E0,0E0,0E0,0E0],"parents":[2147483647,0,0,1,1,2,2,3,3,4,4],"right_children":[2,4,6,8,10,-1,-1,-1,-1,-1,-1],"split_conditions":[1E0,5E0,8E0,1E0,6E0,9.454783E-3,1.0557618E-2,2.0757432E-3,2.4587358E-3,2.3574035E-3,2.2627295E-3],"split_indices":[4,2,1,1,1,0,0,0,0,0,0],"split_type":[0,0,0,0,0,0,0,0,0,0,0],"sum_hessian":[7.548E3,7.175E3,3.73E2,2.787E3,4.388E3,2.24E2,1.49E2,1.26E2,2.661E3,7.53E2,3.635E3],"tree_param":{"num_deleted":"0","num_feature":"5","num_nodes":"11","size_leaf_vector":"1"}},{"base_weights":[2.6916885E-1,2.3196067E-1,9.823688E-1,2.417766E-1,2.2567248E-1,8.975782E-3,1.0147421E-2,2.5433104E-3,2.36703E-3,2.3338604E-3,2.2401086E-3],"categories":[],"categories_nodes":[],"categories_segments":[],"categories_sizes":[],"default_left":[0,0,0,0,0,0,0,0,0,0,0],"id":110,"left_children":[1,3,5,7,9,-1,-1,-1,-1,-1,-1],"loss_changes":[2.00099E2,3.8839722E-1,1.15753174E-1,1.17385864E-1,3.967285E-3,0E0,0E0,0E0,0E0,0E0,0E0],"parents":[2147483647,0,0,1,1,2,2,3,3,4,4],"right_children":[2,4,6,8,10,-1,-1,-1,-1,-1,-1],"split_conditions":[1E0,5E0,7E0,8E0,6E0,8.975782E-3,1.0147421E-2,2.5433104E-3,2.36703E-3,2.3338604E-3,2.2401086E-3],"split_indices":[4,2,1,1,1,0,0,0,0,0,0],"split_type":[0,0,0,0,0,0,0,0,0,0,0],"sum_hessian":[7.548E3,7.175E3,3.73E2,2.787E3,4.388E3,1.11E2,2.62E2,7.88E2,1.999E3,7.53E2,3.635E3],"tree_param":{"num_deleted":"0","num_feature":"5","num_nodes":"11","size_leaf_vector":"1"}},{"base_weights":[2.6648095E-1,2.2964238E-1,9.7259635E-1,2.2344212E-1,2.3940086E-1,9.2654135E-3,1.0351948E-2,2.2821734E-3,2.208581E-3,2.0299163E-3,2.4105667E-3],"categories":[],"categories_nodes":[],"categories_segments":[],"categories_sizes":[],"default_left":[0,0,0,0,0,0,0,0,0,0,0],"id":111,"left_children":[1,3,5,7,9,-1,-1,-1,-1,-1,-1],"loss_changes":[1.9614343E2,3.8067627E-1,1.1907959E-1,3.9367676E-3,1.1828613E-1,0E0,0E0,0E0,0E0,0E0,0E0],"parents":[2147483647,0,0,1,1,2,2,3,3,4,4],"right_children":[2,4,6,8,10,-1,-1,-1,-1,-1,-1],"split_conditions":[1E0,4.7E1,8E0,1.2E1,1E0,9.2654135E-3,1.0351948E-2,2.2821734E-3,2.208581E-3,2.0299163E-3,2.4105667E-3],"split_indices":[4,0,1,1,1,0,0,0,0,0,0],"split_type":[0,0,0,0,0,0,0,0,0,0,0],"sum_hessian":[7.548E3,7.175E3,3.73E2,4.402E3,2.773E3,2.24E2,1.49E2,1.515E3,2.887E3,1.26E2,2.647E3],"tree_param":{"num_deleted":"0","num_feature":"5","num_nodes":"11","size_leaf_vector":"1"}},{"base_weights":[2.638199E-1,2.2734718E-1,9.629229E-1,2.3696874E-1,2.2118352E-1,8.795E-3,9.947876E-3,2.4944425E-3,2.3192866E-3,2.2877608E-3,2.1954821E-3],"categories":[],"categories_nodes":[],"categories_segments":[],"categories_sizes":[],"default_left":[0,0,0,0,0,0,0,0,0,0,0],"id":112,"left_children":[1,3,5,7,9,-1,-1,-1,-1,-1,-1],"loss_changes":[1.9226697E2,3.7316895E-1,1.19262695E-1,1.1743164E-1,4.257202E-3,0E0,0E0,0E0,0E0,0E0,0E0],"parents":[2147483647,0,0,1,1,2,2,3,3,4,4],"right_children":[2,4,6,8,10,-1,-1,-1,-1,-1,-1],"split_conditions":[1E0,5E0,7E0,8E0,6E0,8.795E-3,9.947876E-3,2.4944425E-3,2.3192866E-3,2.2877608E-3,2.1954821E-3],"split_indices":[4,2,1,1,1,0,0,0,0,0,0],"split_type":[0,0,0,0,0,0,0,0,0,0,0],"sum_hessian":[7.548E3,7.175E3,3.73E2,2.787E3,4.388E3,1.11E2,2.62E2,7.88E2,1.999E3,7.53E2,3.635E3],"tree_param":{"num_deleted":"0","num_feature":"5","num_nodes":"11","size_leaf_vector":"1"}},{"base_weights":[2.6118544E-1,2.25075E-1,9.533438E-1,2.1899755E-1,2.3464024E-1,9.079822E-3,1.0150305E-2,2.2369563E-3,2.1645555E-3,1.9850298E-3,2.362848E-3],"categories":[],"categories_nodes":[],"categories_segments":[],"categories_sizes":[],"default_left":[0,0,0,0,0,0,0,0,0,0,0],"id":113,"left_children":[1,3,5,7,9,-1,-1,-1,-1,-1,-1],"loss_changes":[1.8846613E2,3.657837E-1,1.2490845E-1,4.1503906E-3,1.1795044E-1,0E0,0E0,0E0,0E0,0E0,0E0],"parents":[2147483647,0,0,1,1,2,2,3,3,4,4],"right_children":[2,4,6,8,10,-1,-1,-1,-1,-1,-1],"split_conditions":[1E0,4.7E1,8E0,1.2E1,1E0,9.079822E-3,1.0150305E-2,2.2369563E-3,2.1645555E-3,1.9850298E-3,2.362848E-3],"split_indices":[4,0,1,1,1,0,0,0,0,0,0],"split_type":[0,0,0,0,0,0,0,0,0,0,0],"sum_hessian":[7.548E3,7.175E3,3.73E2,4.402E3,2.773E3,2.24E2,1.49E2,1.515E3,2.887E3,1.26E2,2.647E3],"tree_param":{"num_deleted":"0","num_feature":"5","num_nodes":"11","size_leaf_vector":"1"}},{"base_weights":[2.585773E-1,2.2282548E-1,9.438618E-1,2.1680859E-1,2.3229541E-1,8.989427E-3,1.004948E-2,2.242574E-3,2.1521044E-3,2.3900582E-3,2.2306861E-3],"categories":[],"categories_nodes":[],"categories_segments":[],"categories_sizes":[],"default_left":[0,0,0,0,0,0,0,0,0,0,0],"id":114,"left_children":[1,3,5,7,9,-1,-1,-1,-1,-1,-1],"loss_changes":[1.8474136E2,3.585205E-1,1.2286377E-1,4.1503906E-3,1.1843872E-1,0E0,0E0,0E0,0E0,0E0,0E0],"parents":[2147483647,0,0,1,1,2,2,3,3,4,4],"right_children":[2,4,6,8,10,-1,-1,-1,-1,-1,-1],"split_conditions":[1E0,4.7E1,8E0,6E0,1.6E1,8.989427E-3,1.004948E-2,2.242574E-3,2.1521044E-3,2.3900582E-3,2.2306861E-3],"split_indices":[4,0,1,1,1,0,0,0,0,0,0],"split_type":[0,0,0,0,0,0,0,0,0,0,0],"sum_hessian":[7.548E3,7.175E3,3.73E2,4.402E3,2.773E3,2.24E2,1.49E2,7.53E2,3.649E3,1.591E3,1.182E3],"tree_param":{"num_deleted":"0","num_feature":"5","num_nodes":"11","size_leaf_vector":"1"}},{"base_weights":[2.5599524E-1,2.2059849E-1,9.344741E-1,2.2993605E-1,2.1461679E-1,8.528755E-3,9.656701E-3,2.4226645E-3,2.2495673E-3,2.2201778E-3,2.13023E-3],"categories":[],"categories_nodes":[],"categories_segments":[],"categories_sizes":[],"default_left":[0,0,0,0,0,0,0,0,0,0,0],"id":115,"left_children":[1,3,5,7,9,-1,-1,-1,-1,-1,-1],"loss_changes":[1.8109021E2,3.5147095E-1,1.2844849E-1,1.1668396E-1,4.4555664E-3,0E0,0E0,0E0,0E0,0E0,0E0],"parents":[2147483647,0,0,1,1,2,2,3,3,4,4],"right_children":[2,4,6,8,10,-1,-1,-1,-1,-1,-1],"split_conditions":[1E0,5E0,7E0,8E0,6E0,8.528755E-3,9.656701E-3,2.4226645E-3,2.2495673E-3,2.2201778E-3,2.13023E-3],"split_indices":[4,2,1,1,1,0,0,0,0,0,0],"split_type":[0,0,0,0,0,0,0,0,0,0,0],"sum_hessian":[7.548E3,7.175E3,3.73E2,2.787E3,4.388E3,1.11E2,2.62E2,7.88E2,1.999E3,7.53E2,3.635E3],"tree_param":{"num_deleted":"0","num_feature":"5","num_nodes":"11","size_leaf_vector":"1"}},{"base_weights":[2.5343892E-1,2.1839379E-1,9.25178E-1,2.2763838E-1,2.1247163E-1,8.80936E-3,9.853731E-3,1.917587E-3,2.2926463E-3,2.1980058E-3,2.1089336E-3],"categories":[],"categories_nodes":[],"categories_segments":[],"categories_sizes":[],"default_left":[0,0,0,0,0,0,0,0,0,0,0],"id":116,"left_children":[1,3,5,7,9,-1,-1,-1,-1,-1,-1],"loss_changes":[1.7751035E2,3.4454346E-1,1.2799072E-1,1.1871338E-1,4.40979E-3,0E0,0E0,0E0,0E0,0E0,0E0],"parents":[2147483647,0,0,1,1,2,2,3,3,4,4],"right_children":[2,4,6,8,10,-1,-1,-1,-1,-1,-1],"split_conditions":[1E0,5E0,8E0,1E0,6E0,8.80936E-3,9.853731E-3,1.917587E-3,2.2926463E-3,2.1980058E-3,2.1089336E-3],"split_indices":[4,2,1,1,1,0,0,0,0,0,0],"split_type":[0,0,0,0,0,0,0,0,0,0,0],"sum_hessian":[7.548E3,7.175E3,3.73E2,2.787E3,4.388E3,2.24E2,1.49E2,1.26E2,2.661E3,7.53E2,3.635E3],"tree_param":{"num_deleted":"0","num_feature":"5","num_nodes":"11","size_leaf_vector":"1"}},{"base_weights":[2.5090814E-1,2.1621104E-1,9.159761E-1,2.1037176E-1,2.2540143E-1,8.356922E-3,9.466826E-3,2.149365E-3,2.0790275E-3,2.3202193E-3,2.1630146E-3],"categories":[],"categories_nodes":[],"categories_segments":[],"categories_sizes":[],"default_left":[0,0,0,0,0,0,0,0,0,0,0],"id":117,"left_children":[1,3,5,7,9,-1,-1,-1,-1,-1,-1],"loss_changes":[1.7400208E2,3.3770752E-1,1.308899E-1,4.928589E-3,1.1694336E-1,0E0,0E0,0E0,0E0,0E0,0E0],"parents":[2147483647,0,0,1,1,2,2,3,3,4,4],"right_children":[2,4,6,8,10,-1,-1,-1,-1,-1,-1],"split_conditions":[1E0,4.7E1,7E0,1.2E1,1.6E1,8.356922E-3,9.466826E-3,2.149365E-3,2.0790275E-3,2.3202193E-3,2.1630146E-3],"split_indices":[4,0,1,1,1,0,0,0,0,0,0],"split_type":[0,0,0,0,0,0,0,0,0,0,0],"sum_hessian":[7.548E3,7.175E3,3.73E2,4.402E3,2.773E3,1.11E2,2.62E2,1.515E3,2.887E3,1.591E3,1.182E3],"tree_param":{"num_deleted":"0","num_feature":"5","num_nodes":"11","size_leaf_vector":"1"}},{"base_weights":[2.484026E-1,2.1405017E-1,9.06864E-1,2.0826901E-1,2.2314906E-1,8.632886E-3,9.661812E-3,2.1278856E-3,2.0582445E-3,1.8755429E-3,2.2477193E-3],"categories":[],"categories_nodes":[],"categories_segments":[],"categories_sizes":[],"default_left":[0,0,0,0,0,0,0,0,0,0,0],"id":118,"left_children":[1,3,5,7,9,-1,-1,-1,-1,-1,-1],"loss_changes":[1.7056229E2,3.3099365E-1,1.3259888E-1,4.8675537E-3,1.1808777E-1,0E0,0E0,0E0,0E0,0E0,0E0],"parents":[2147483647,0,0,1,1,2,2,3,3,4,4],"right_children":[2,4,6,8,10,-1,-1,-1,-1,-1,-1],"split_conditions":[1E0,4.7E1,8E0,1.2E1,1E0,8.632886E-3,9.661812E-3,2.1278856E-3,2.0582445E-3,1.8755429E-3,2.2477193E-3],"split_indices":[4,0,1,1,1,0,0,0,0,0,0],"split_type":[0,0,0,0,0,0,0,0,0,0,0],"sum_hessian":[7.548E3,7.175E3,3.73E2,4.402E3,2.773E3,2.24E2,1.49E2,1.515E3,2.887E3,1.26E2,2.647E3],"tree_param":{"num_deleted":"0","num_feature":"5","num_nodes":"11","size_leaf_vector":"1"}},{"base_weights":[2.4592209E-1,2.1191083E-1,8.978442E-1,2.208822E-1,2.061637E-1,8.188543E-3,9.280687E-3,2.3311435E-3,2.1594618E-3,2.1333396E-3,2.0462011E-3],"categories":[],"categories_nodes":[],"categories_segments":[],"categories_sizes":[],"default_left":[0,0,0,0,0,0,0,0,0,0,0],"id":119,"left_children":[1,3,5,7,9,-1,-1,-1,-1,-1,-1],"loss_changes":[1.6719135E2,3.244934E-1,1.3293457E-1,1.17996216E-1,4.928589E-3,0E0,0E0,0E0,0E0,0E0,0E0],"parents":[2147483647,0,0,1,1,2,2,3,3,4,4],"right_children":[2,4,6,8,10,-1,-1,-1,-1,-1,-1],"split_conditions":[1E0,5E0,7E0,8E0,6E0,8.188543E-3,9.280687E-3,2.3311435E-3,2.1594618E-3,2.1333396E-3,2.0462011E-3],"split_indices":[4,2,1,1,1,0,0,0,0,0,0],"split_type":[0,0,0,0,0,0,0,0,0,0,0],"sum_hessian":[7.548E3,7.175E3,3.73E2,2.787E3,4.388E3,1.11E2,2.62E2,7.88E2,1.999E3,7.53E2,3.635E3],"tree_param":{"num_deleted":"0","num_feature":"5","num_nodes":"11","size_leaf_vector":"1"}},{"base_weights":[2.4346632E-1,2.0979291E-1,8.889125E-1,2.1867499E-1,2.04103E-1,8.459935E-3,9.473649E-3,1.8338077E-3,2.2027667E-3,2.1120342E-3,2.0257442E-3],"categories":[],"categories_nodes":[],"categories_segments":[],"categories_sizes":[],"default_left":[0,0,0,0,0,0,0,0,0,0,0],"id":120,"left_children":[1,3,5,7,9,-1,-1,-1,-1,-1,-1],"loss_changes":[1.6388629E2,3.1802368E-1,1.368103E-1,1.1720276E-1,4.852295E-3,0E0,0E0,0E0,0E0,0E0,0E0],"parents":[2147483647,0,0,1,1,2,2,3,3,4,4],"right_children":[2,4,6,8,10,-1,-1,-1,-1,-1,-1],"split_conditions":[1E0,5E0,8E0,1E0,6E0,8.459935E-3,9.473649E-3,1.8338077E-3,2.2027667E-3,2.1120342E-3,2.0257442E-3],"split_indices":[4,2,1,1,1,0,0,0,0,0,0],"split_type":[0,0,0,0,0,0,0,0,0,0,0],"sum_hessian":[7.548E3,7.175E3,3.73E2,2.787E3,4.388E3,2.24E2,1.49E2,1.26E2,2.661E3,7.53E2,3.635E3],"tree_param":{"num_deleted":"0","num_feature":"5","num_nodes":"11","size_leaf_vector":"1"}},{"base_weights":[2.4103512E-1,2.0769614E-1,8.800713E-1,2.0208566E-1,2.1652643E-1,8.023544E-3,9.098212E-3,2.06504E-3,1.9969635E-3,2.2533361E-3,2.097873E-3],"categories":[],"categories_nodes":[],"categories_segments":[],"categories_sizes":[],"default_left":[0,0,0,0,0,0,0,0,0,0,0],"id":121,"left_children":[1,3,5,7,9,-1,-1,-1,-1,-1,-1],"loss_changes":[1.6064731E2,3.1173706E-1,1.3470459E-1,5.2490234E-3,1.17370605E-1,0E0,0E0,0E0,0E0,0E0,0E0],"parents":[2147483647,0,0,1,1,2,2,3,3,4,4],"right_children":[2,4,6,8,10,-1,-1,-1,-1,-1,-1],"split_conditions":[1E0,4.7E1,7E0,1.2E1,1.3E1,8.023544E-3,9.098212E-3,2.06504E-3,1.9969635E-3,2.2533361E-3,2.097873E-3],"split_indices":[4,0,1,1,1,0,0,0,0,0,0],"split_type":[0,0,0,0,0,0,0,0,0,0,0],"sum_hessian":[7.548E3,7.175E3,3.73E2,4.402E3,2.773E3,1.11E2,2.62E2,1.515E3,2.887E3,1.188E3,1.585E3],"tree_param":{"num_deleted":"0","num_feature":"5","num_nodes":"11","size_leaf_vector":"1"}},{"base_weights":[2.3862816E-1,2.0562036E-1,8.713163E-1,2.0006573E-1,2.1436277E-1,8.290434E-3,9.289169E-3,2.0444028E-3,1.977001E-3,1.7932586E-3,2.159622E-3],"categories":[],"categories_nodes":[],"categories_segments":[],"categories_sizes":[],"default_left":[0,0,0,0,0,0,0,0,0,0,0],"id":122,"left_children":[1,3,5,7,9,-1,-1,-1,-1,-1,-1],"loss_changes":[1.5747153E2,3.055725E-1,1.4056396E-1,5.126953E-3,1.1672211E-1,0E0,0E0,0E0,0E0,0E0,0E0],"parents":[2147483647,0,0,1,1,2,2,3,3,4,4],"right_children":[2,4,6,8,10,-1,-1,-1,-1,-1,-1],"split_conditions":[1E0,4.7E1,8E0,1.2E1,1E0,8.290434E-3,9.289169E-3,2.0444028E-3,1.977001E-3,1.7932586E-3,2.159622E-3],"split_indices":[4,0,1,1,1,0,0,0,0,0,0],"split_type":[0,0,0,0,0,0,0,0,0,0,0],"sum_hessian":[7.548E3,7.175E3,3.73E2,4.402E3,2.773E3,2.24E2,1.49E2,1.515E3,2.887E3,1.26E2,2.647E3],"tree_param":{"num_deleted":"0","num_feature":"5","num_nodes":"11",